//#include "ap_axi_sdata.h" // ap_axis can also be used, but it will include all sideband signals which we don't need
#include "hls_stream.h"
#include "ap_int.h"
#include "hls_math.h"

#define INPUT_SIZE 300
#define HIDDEN1_SIZE 128
#define HIDDEN2_SIZE 32
#define OUTPUT_SIZE 9

struct AXIS_wLAST{
	float data;
	bool last;
};

#define ALPHA 0.5
float elu(float x) {
	if (x >= 0) {
		return x;
	}
	return ALPHA * (hls::exp(x) - 1);
}

float relu(float x) {
	if (x >= 0) {
		return x;
	}
	return 0;
}

float sigmoid(float x) {
	return 1.0 / (1 + hls::exp(-1.0 * x));
}

float dot_product(float a[], float b[], int n) {
	float sum = 0.0;
	for (int l = 0; l < n; l++) {
		sum += a[l] * b[l];
	}
	return sum;
}

void softmax(float a[]) {
	int i;
	float sum = 0;
	for (i = 0; i < OUTPUT_SIZE; i++) {
		a[i] = hls::exp(a[i]);
		sum += a[i];
	}
	for (i = 0; i < OUTPUT_SIZE; i++) {
		a[i] = a[i] / sum;
	}
}

void myip_MLP_300_HLS(hls::stream<AXIS_wLAST>& S_AXIS, hls::stream<AXIS_wLAST>& M_AXIS){
#pragma HLS INTERFACE ap_ctrl_none port=return
#pragma HLS INTERFACE axis port=S_AXIS
#pragma HLS INTERFACE axis port=M_AXIS

	float inputs[INPUT_SIZE];

	int i, j;
	AXIS_wLAST read_input, write_output;
	float hidden1[HIDDEN1_SIZE];
	float bias1[HIDDEN1_SIZE] = {0.007860783, 0.24179345, 0.16351333, -0.0154775195, -0.0081421435, -0.075263225, -0.01191895, -0.009552941, -0.008959922, -0.07435301, -0.008178504, 0.051816918, -0.16312914, -0.052106652, -0.005106345, 0.32351705, -0.16133392, -0.16247587, 0.21837536, -0.1490463, -0.0051394384, 0.14626183, 0.047900885, 0.07702033, 0.011917481, -0.0076935114, -0.100574724, 0.08642098, -0.18976866, 0.055890467, 0.35513613, 0.0, 0.06445313, -0.014274817, 0.0225263, 0.041958913, -0.06868553, -0.3609161, -0.074566595, -0.00787111, -0.0072070397, 0.037214402, -0.00534081, 0.4343144, 0.0071873125, -0.010495161, -0.07022673, -0.14008915, -0.32992342, 0.14564405, 0.10184323, 0.09588414, -0.05615019, 0.34326196, -0.20417777, -0.22353597, -0.012076971, -0.34918454, 0.099408954, -0.22837703, 0.0551411, -0.007749836, 0.05016639, 0.2461649, 0.14815198, -0.011798505, -0.30794573, -0.13689919, 0.2529445, -0.21315615, 0.24436754, -0.09297011, -0.012814878, 0.11935291, -0.23238938, -0.2453928, -0.011898249, -0.004487506, -0.13642418, -0.13912983, 0.17554983, 0.42713425, 0.16583373, -0.005237672, -0.12260446, -0.016539391, -0.18610807, 0.231478, -0.050333813, 0.0902949, -0.012094953, -0.045837637, -0.0059931153, -0.21574545, 0.29938737, 0.3379767, -0.38473627, -0.009880835, 0.19231988, -0.06746837, 0.14843744, 0.35454354, -0.007010795, 0.108731784, 0.08667756, 0.051482487, 0.29767674, -0.09425179, 0.4794883, 0.09750853, 0.01742937, 0.07968779, -0.120476305, -0.012857681, 0.12460902, -0.079851106, 0.08689084, 0.26290143, 0.13970855, -0.010586849, -0.02820718, 0.022255749, -0.20302552, 0.19756053, 0.32640105, -0.006762416, 0.13246317, 0.042197604};
	float hidden1_matrix[HIDDEN1_SIZE][INPUT_SIZE] = {{ 0.029314859, 0.0047156364, 0.03129582, 0.55249274, -0.6252602, -0.15571988, 0.05171229, -0.027734457, 0.049579583, 0.61556095, -0.4123197, -0.19963087, -0.011638543, 0.04716134, 0.11944841, 0.48918507, -0.32131633, -0.18511504, -0.05992943, 0.037328742, 0.05770234, 0.6376877, -0.45191798, -0.21779984, -0.020907272, 0.0050951606, 0.029576842, 0.60421044, -0.36996502, -0.17865591, -0.0365402, 0.00057720486, 0.10452443, 0.63947606, -0.39735848, -0.17820525, -0.11629833, -0.009880138, 0.044938877, 0.44956246, -0.36527336, -0.33016026, -0.007726206, -0.01150333, 0.073334046, 0.581745, -0.3016713, -0.28096175, -0.008345334, -0.056535367, 0.036779992, 0.48821494, -0.28614062, -0.23340048, -0.060489353, -0.0107717225, 0.019210761, 0.39163995, -0.3324552, -0.23794127, -0.047855265, -0.055292822, 0.017580446, 0.5155881, -0.16720514, -0.059743557, -0.05970374, -0.025912642, 0.0016201973, 0.32069016, -0.15929042, -0.22345936, -0.005542497, 0.0074608508, 0.0152752, 0.23266302, -0.004244029, -0.12271501, -0.011525229, -0.022976385, 0.08231037, 0.20954022, -0.084256835, -0.19817856, 0.008316752, 0.04783381, 0.05123957, 0.0006423609, -0.024167389, -0.16447997, -0.029925179, 0.0074457456, -0.0125528835, 0.04697769, 0.06667081, 0.027614933, 0.06954222, 0.009427645, 0.01525944, -0.123095244, 0.26785734, -0.0042114, 0.10353978, 0.013966752, 0.016292214, -0.22940437, 0.4749384, 0.06576166, 0.046514016, 0.01100877, -0.017235251, -0.3541248, 0.43742552, 0.20031504, 0.05567918, -0.091132194, 0.034817573, -0.5846355, 0.54804826, 0.18805031, 0.031319257, -0.014738324, 0.030535221, -0.65784943, 0.63893086, 0.2404458, 0.089041054, -0.041458648, -0.030289581, -0.6059534, 0.5371665, 0.3036315, -0.08021116, -0.061681878, 0.076147676, -0.5732312, 0.5647975, 0.3124665, 0.03266259, -0.0033751063, 0.016692322, -0.7154547, 0.5305455, 0.17349978, -0.06353786, -0.079368204, -0.0032303338, -0.78676486, 0.7061208, 0.27597952, -0.0394099, -0.048380867, 0.04829801, -0.5819268, 0.49370793, 0.1679123, -0.023981905, -0.019212782, 0.022382144, -0.78787875, 0.5359939, 0.21479452, -0.030481458, -0.03425978, 0.024745515, -0.77898955, 0.5037065, 0.2178095, -0.015346285, -0.039322764, -0.030020164, -0.72185224, 0.2587688, 0.17104094, -0.0862807, -0.033855565, -0.011688862, -0.53964233, 0.2559688, 0.07207849, -0.030715298, -0.020278174, 0.026824143, -0.6780765, 0.08633658, 0.123250805, -0.024332266, -0.011060143, 0.041552383, -0.548558, 0.21688166, 0.1419062, -0.0833456, 0.010728151, 0.09297852, -0.40620634, 0.028144114, 0.059120603, 0.028470086, 0.051825635, 0.07418646, -0.38712752, -0.06994348, 0.2148651, -0.029525476, -0.04174629, 0.018323015, -0.25119135, -0.14767703, 0.08319386, 0.034389086, 0.023860268, 0.02008212, -0.13693328, -0.1107172, 0.1130917, 0.072929196, -0.054282106, 0.05088073, -0.008456933, -0.15762796, 0.07883678, 0.07560634, 0.0052750697, 0.050541796, 0.002835128, -0.21559441, 0.091827765, 0.05368221, -0.050624635, -0.006578589, 0.14782968, -0.2667442, -0.011029988, 0.08397506, -0.011915175, -0.0125688035, 0.06052265, -0.27558553, -0.086077616, 0.059996817, -0.018249433, -0.014323195, 0.14991593, -0.427657, -0.17869653, 0.011810854, 0.015219802, -0.032465197, 0.17669858, -0.36483333, -0.03566546, 0.1131058, 0.056259338, -0.028522158, 0.24669881, -0.40988648, -0.32487103, 0.06437962, 0.051433112, -0.068792775, 0.32825106, -0.34000856, -0.22015326, 0.08577403, -0.0025865333, 0.044859216, 0.41146004, -0.34121773, -0.28709894, 0.12383584, 0.061923448, 0.03320863, 0.48904338, -0.37905934, -0.38343742, 0.023477135, 0.03697166, -0.0826021, 0.36442357, -0.2520084, -0.54794043, 0.055067126, 0.027888075, 0.0074739866, 0.53371584, -0.3836837, -0.41747808, 0.05258977, -0.039254352, 0.019470427, 0.53404677, -0.1778055, -0.64818215, 0.007943142, 0.03573126, 0.039745945, 0.39780474, -0.2782801, -0.7058203},

				{ 0.0040460844, 0.07066879, -0.059128, -0.7845271, -0.08590029, 0.014539376, -0.039842613, 0.18291374, 0.118697785, -0.5057705, -0.027557692, -0.05820413, 0.27222958, -0.08884694, 0.019485129, -0.53422344, -0.015899543, -0.038839944, 0.19550183, -0.13702874, 0.20365989, -0.36799064, -0.1399508, 0.097229965, 0.12941155, -0.05601466, 0.16114335, -0.20142478, -0.08284447, 0.1075205, 0.18282275, 0.036993332, 0.019680329, -0.37731048, -0.15095122, 0.025988335, 0.11871277, 0.072675064, 9.219539e-05, -0.21786089, -0.1007671, -0.010690835, 0.12380788, 0.117935814, 0.044356134, -0.21637142, 0.13707009, 0.0645183, 0.12910296, 0.19061425, 0.13513923, -0.2301092, -0.056880232, 0.05425152, 0.08042902, 0.15492055, 0.08102868, -0.21991399, -0.014610197, -0.062009666, 0.079046056, 0.21012518, 0.04511642, -0.104452305, -0.013530683, -0.19271861, 0.10248162, -0.050994184, 0.058664914, -0.14025176, 0.02459521, -0.08196552, 0.013870387, 0.058282442, -0.06642982, -0.28775293, -0.038040623, -0.08772063, 0.060138326, 0.09439001, -0.046286695, -0.349036, -0.09094601, -0.005727718, 0.08595532, 0.033515815, 0.16640545, -0.29431215, -0.09895496, -0.030846266, 0.03194682, 0.10583451, 0.1093431, -0.36742067, 0.049363323, 0.15468383, 0.047627237, 0.008428274, 0.07986079, -0.15843196, -0.026299905, 0.017528322, 0.18339103, 0.16025586, -0.08686872, -0.20691973, -0.13774791, 0.1767063, 0.20565234, 0.11147022, 0.074849285, -0.3664736, -0.0010951537, 0.19456114, 0.075503856, 0.09395417, 0.041697137, -0.39935327, -0.084082164, 0.17555748, 0.10693851, 0.1471292, 0.0022508565, -0.27498755, -0.029257767, 0.10365766, 0.10297523, 0.004055424, 0.15315513, -0.2919929, -0.07275797, 0.051701322, 0.065746464, 0.1425343, 0.1283665, -0.35282105, 0.09672721, 0.052131586, 0.12449758, 0.15386274, 0.019475501, -0.4141955, -0.036720134, 0.15282683, 0.2076917, 0.1516163, -0.045327067, -0.31981942, 0.12632595, 0.14396673, 0.011327965, 0.21124648, 0.12759903, -0.47072962, 0.047205348, 0.18880132, 0.0048173764, 0.13841614, -0.020932917, -0.42827687, -0.011161184, 0.18925126, 0.043066915, 0.08292315, -0.11849951, -0.35789517, -0.018530458, 0.1870652, -0.04292834, 0.07245061, 0.017189061, -0.37870798, 0.04152758, 0.069516316, 0.15640202, 0.09651692, 0.21545286, -0.2496412, -0.0101530235, 0.07751791, 0.04111825, 0.018208662, 0.12700501, -0.42378277, 0.011410296, 0.07527835, 0.11981292, 0.10140098, 0.061270207, -0.33793572, -0.07776305, 0.037472703, 0.031826455, 0.09304133, 0.06573788, -0.35582626, 0.05252976, 0.024634859, 0.08382196, -0.033305284, -0.038758487, -0.25898486, -0.055587467, 0.10396678, 0.1805389, 0.06242689, 0.051158756, -0.20331983, 0.16076252, 0.18418652, 0.12757877, 0.069861494, -0.094681256, -0.26976246, 0.16707444, 0.2586549, 0.07609223, 0.06460939, -0.024083462, -0.23174088, -0.010724323, 0.29998747, 0.107795514, 0.09808861, -0.08178124, -0.27138287, 0.17484152, 0.29998603, 0.17417525, 0.14651658, 0.09336635, -0.23756993, 0.008872957, 0.28986326, 0.039788976, 0.25996527, 0.004133744, -0.18968295, 0.086485624, 0.41694364, 0.17172207, 0.03600378, -0.0319604, -0.089284115, 0.2043272, 0.23865461, -0.0003844551, -0.006234764, 0.11406433, -0.003889964, 0.18770535, 0.2888192, -0.039557803, 0.18129928, 0.055359554, -0.0091236355, 0.0020156002, 0.235813, -0.028643627, 0.12993063, 0.03793149, -0.11086693, 0.15364201, 0.19220039, 0.044870675, 0.17477493, 0.119868375, -0.12183296, 0.04524862, 0.32462093, -0.016042031, 0.08502667, -0.083295, -0.14377356, -0.035020567, 0.19164313, 0.12759559, 0.04023175, -0.10164478, -0.081998736, 0.121795006, 0.20935872, 0.13513578, 0.18481033, 0.11908515, -0.16104177, 0.06888996, 0.2886943, 0.13858673, 0.14321496, -0.031512305, -0.4141953, 0.17833462, 0.35480282, 0.037642475, 0.18441549, 0.026698126, -0.69708246, 0.026588913, 0.25991425},

				{ 0.09069352, 0.17939012, -0.037919004, 0.14415742, -0.18813695, -0.23476866, 0.031985555, 0.03394624, -0.028640881, 0.19233426, -0.23819676, -0.24012744, 0.0692152, 0.22486387, 0.11233317, 0.090813115, -0.39490774, -0.106100604, 0.006497889, 0.19767043, 0.039759673, 0.29679325, -0.37562004, -0.3220322, -0.0016737828, -0.051853128, 0.06184116, 0.17352049, -0.32614166, -0.45906088, 0.026928164, -0.04290644, 0.14385085, 0.2056245, -0.29985443, -0.521338, -0.17909807, -0.027080754, 0.061694056, 0.31461364, -0.22736536, -0.48457995, 0.0055653458, -0.025189675, 0.07686952, 0.10648328, -0.20352693, -0.6826017, 0.10436752, 0.014513701, -0.0051075253, 0.07288339, -0.08135237, -0.55460703, 0.1359469, 0.09891336, 0.05705461, 0.17761242, -0.1419375, -0.58598244, 0.1304549, 0.08439166, 0.050013218, 0.09635514, 0.0843524, -0.24724722, -0.026985273, -0.009773645, 0.19531214, 0.09171242, 0.13894574, -0.08569302, -0.09451892, -0.10081407, 0.27925342, 0.14577146, 0.18267605, -0.037451286, -0.083574794, 0.021797642, 0.0069092144, 0.1075121, 0.11624659, 0.07624153, -0.07609227, 0.07812806, 0.053418476, -0.017032264, 0.013594072, 0.24858469, 0.052870635, 0.058890942, 0.13396168, 0.10875178, 0.19544253, 0.22706349, 0.011247407, -0.051637832, 0.011888852, 0.0855378, 0.10102034, -0.035493564, -0.03468933, -0.042577125, -0.023586154, -0.093861796, 0.024298167, -0.15594076, 0.036264334, -0.04795419, 0.0955238, 0.09406575, -0.06569386, -0.17245823, -0.1639031, 0.12790616, -0.035364717, -0.110858366, 0.15280727, -0.21511628, -0.15952349, 0.008351868, -0.01506579, -0.095396176, -0.03714002, -0.43141052, -0.09457087, 0.18543486, -0.046468098, 0.07105854, 0.013102099, -0.5248936, -0.16047056, -0.04003821, -0.067776375, 0.0430384, -0.06898381, -0.6351089, -0.093552455, 0.017854996, 0.04461841, 0.031248733, -0.07462859, -0.6465824, 0.09344145, 0.0590646, 0.02458478, 0.13108179, -0.026933072, -0.6857915, 0.041050743, 0.08121255, 0.009869966, 0.08756013, -0.046438396, -0.66319233, 0.008042247, -0.04675526, 0.0027985156, 0.098081656, 0.10501866, -0.4737536, 0.009472697, 0.1194571, 0.15249649, -0.14064606, 0.115906104, -0.46718597, -0.012077316, 0.06317996, 0.02112452, -0.019640932, 0.11573527, -0.37533733, 0.15351622, 0.046572935, 0.1365917, -0.09777464, -0.04351548, -0.13295041, 0.056998245, 0.17587458, 0.13533308, -0.27119994, 0.18564893, -0.10614615, 0.029359065, 0.21556742, 0.10585452, -0.27687687, 0.03798157, 0.21724723, -0.056218732, 0.026816893, 0.028586732, -0.12370842, 0.2438707, 0.15548785, 1.105944e-05, 0.07729777, 0.19750841, -0.24250746, 0.15598142, 0.13440953, 0.030470641, 0.06888475, 0.06586131, 0.023273392, 0.14352469, 0.34576952, 0.06539452, -0.036366872, 0.13908711, -0.05659645, 0.21593137, 0.299839, 0.19861735, 0.0023301777, 0.077310644, 0.15003796, 0.2654038, 0.11256958, 0.1399607, 0.04852661, -0.041419595, 0.05640235, 0.16185729, 0.09215732, 0.19159335, -0.0027706306, 0.08025598, 0.18228182, 0.07475185, -0.19966139, 0.15290365, -0.037823822, 0.17519215, 0.10678744, 0.12279551, -0.306152, 0.071089715, 0.02471923, 0.11130419, 0.21894744, -0.055276964, -0.5638684, 0.13676108, -0.13407847, -0.11279771, 0.07401853, 0.13733749, -0.6493329, 0.19015764, -0.08428389, -0.040197823, 0.053836823, 0.10004939, -0.8772739, 0.09401245, -0.05601731, -0.08528576, 0.07889308, 0.009885734, -0.93729544, 0.14302857, -0.045305908, 0.019476263, -0.003161261, 0.054113008, -0.90449864, 0.035818517, -0.119992405, -0.038512733, 0.112698644, 0.18267551, -0.85150665, 0.0043011215, -0.010044236, -0.03284428, 0.042574003, 0.21831672, -0.6668722, 0.036451794, -0.08654647, -0.11213852, -0.06725294, 0.10609599, -0.64747477, -0.0029615865, -0.09985897, -0.034965485, 0.049658887, 0.06793425, -0.511317, -0.09130862, -0.104479484, -0.044960033, -0.011035145, 0.15731777, -0.42944673},

				{ 0.009257423, 0.059992924, 0.008300892, -0.10030394, -0.0734367, -0.037434086, -0.08395379, 0.008283938, 0.056259833, 0.008196742, 0.06934861, 0.0013352272, -0.12636118, -0.061048374, -0.050760478, -0.040316045, -0.06031548, 0.11156923, -0.074455306, -0.06269002, -0.10141841, -0.109186254, 0.114213616, -0.10106036, 0.07970163, 0.0127410395, 0.092848815, 0.065067686, 0.042212293, 0.005210385, 0.1046861, -0.03970982, -0.023127185, 0.07181457, 0.00032508184, 0.0008949532, -0.10025421, -0.07191677, -0.0126353465, -0.039591223, -0.048802897, -0.059115592, 0.022672325, -0.02237523, -0.023883794, 0.11772941, -0.0587087, 0.002154368, -0.10375837, 0.047060445, -0.10992898, -0.033653494, 0.053152513, -0.009348166, 0.09853804, 0.09782599, -0.12505741, 0.106860794, -0.11243592, 0.09558327, 0.080800235, -0.027185617, 0.08665764, -0.063397154, -0.09209525, -0.03828617, 0.024015047, 0.05954859, 0.021039141, -0.09555127, -0.07894053, 0.09062228, -0.112991184, -0.08990307, 0.092714414, 0.037879337, 0.10777754, 0.02759287, 0.0961878, -0.04311622, 0.08623951, 0.07760082, 0.012104518, -0.030426176, 0.0759461, -0.11474186, -0.032904815, -0.030231701, -0.073124416, -0.06210114, -0.067626424, -0.11531265, 0.05236743, -0.0023434209, -0.006724113, 0.021562738, 0.0880592, -0.031747997, -0.022794897, -0.09719363, 0.04507939, 0.03928015, 0.015673753, -0.11365328, -0.007797631, -0.021487318, 0.09709104, 0.014852373, -0.014531157, -0.13090126, 0.09835138, -0.01594687, 0.013774805, -0.012902841, -0.026649369, 0.089838974, 0.024773257, -0.09365316, 0.041557293, -0.058267172, 0.10365083, -0.071378596, -0.04846521, -0.002181881, -0.026137834, 0.039602295, -0.03529985, 0.00880639, -0.017197516, -0.07241948, 0.02158629, 0.10439893, 0.06655066, -0.06921765, -0.09907323, 0.029876424, -0.07201606, -0.033440284, -0.01669004, -0.06991804, -0.0074966764, -0.066606194, -0.08256537, 0.09248267, -0.10796174, -0.11961766, 0.04271307, 0.12022794, -0.019367766, 0.0033140744, 0.0035303999, 0.055263735, 0.018581463, -0.08647988, 0.112509444, 0.099392146, -0.09791659, -0.10446242, 0.012149199, 0.030886356, 0.10025409, -0.0019978976, -0.039125223, -0.10079816, -0.070943035, -0.06494548, 0.06349779, -0.107200846, -0.04555286, -0.055551678, -0.06902513, 0.10740718, 0.015261299, 0.10475325, -0.033023942, -0.06540132, 0.06284275, -0.017842261, -0.08665832, 0.05747419, -0.009654292, -0.114039846, 0.08496905, 0.047187235, 0.035642397, 0.007819878, 0.022378001, -0.021996614, 0.042389702, -0.06209833, -0.122585975, -0.10756645, -0.126426, -0.046913207, -0.035090633, -0.01863578, -0.015861474, 0.01990545, 0.041177783, 0.03266789, 0.031941596, 0.06367495, 0.011813509, 0.080037236, -0.11771784, -0.02309515, 0.027335765, 0.009474033, -0.04906821, -0.042012814, 0.023048978, -0.10709855, -0.016066423, -0.060110122, -0.08142898, -0.08300689, 0.044286676, 0.02259252, -0.12168673, -0.011216354, 0.021914471, 0.0071250135, 0.09507816, -0.07022254, -0.0252033, 0.037616294, 0.10081576, -0.06934502, 0.07106243, 0.07165808, 0.039372873, -0.06030574, 0.011078303, -0.054018054, -0.07478816, 0.037791926, -0.012783751, 0.001266654, -0.11570199, 0.019357607, -0.05025091, -0.13142459, -0.06708149, 0.07180157, 0.11327438, -0.085668, -0.086385354, -0.04665438, -0.0064716265, 0.007851531, -0.0050131967, 0.061039913, 0.044083726, -0.1097147, 0.066525646, -0.068916835, 0.07153779, -0.061314408, 0.08826696, -0.014404579, -0.108212136, 0.055433698, -0.005125322, -0.06604606, 0.038421553, 0.04592519, 0.082087286, -0.051740296, 0.06850025, -0.114910424, -0.09462053, 0.06218198, -0.119420625, 0.02810158, -0.1101673, 0.10859334, -0.059988666, 0.0003142075, -0.025261374, 0.025929622, -0.08127799, -0.010560067, 0.07476808, 0.07688062, -0.028810395, 0.10990056, -0.04712329, 0.065634675, 0.020757323, -0.04305215, -0.045313355, 0.12135665, 0.10908789, -0.098673016, 0.08005583, 0.094717965, 0.038529184, 0.09188442, 0.08947904, 0.08095935},

				{ -0.08714705, -0.039301023, 0.0895507, -0.0307762, 0.047063652, -0.05889456, -0.12521079, -0.057373624, 0.04665129, 0.03180594, 0.009449834, -0.04469708, 0.01736435, -0.11253246, 0.08073582, -0.08057222, 0.025272023, 0.05893523, -0.050834768, -0.037070226, -0.1140669, -0.037198797, 0.0027721997, -0.097375296, 0.07054748, -0.0011674188, 0.05869153, 0.0013901177, -0.032533463, 0.056439813, -0.010791125, -0.050604858, -0.083020225, -0.11424996, 0.09728378, 0.06329203, 0.03527253, -0.01961931, 0.10431531, 0.09240812, -0.025282804, -0.09160053, -0.009859121, 0.10616059, -0.05499333, -0.02188414, 0.10358004, -0.076174475, -0.08972108, 0.07431547, -0.055659138, 0.012121407, 0.017429993, -0.04948017, 0.09987314, -0.10940732, -0.0150047885, -0.0010557304, -0.016075118, 0.07773165, 0.107764, -0.0033016135, -0.009489071, -0.02498531, 0.10706234, 0.0763149, -0.010561824, -0.09099179, 0.025401242, -0.04908906, -0.114097655, -0.08899531, 0.03640767, 0.017824696, -0.12490052, -0.12506668, -0.046783168, 0.08179429, 0.06346833, -0.08367282, 0.054130793, -0.08720952, -0.11342243, -0.02234685, 0.052050468, -0.014294269, 0.0017810916, 0.06697541, -0.012038784, 0.10368596, 0.08927077, 0.035396546, -0.02447332, -0.06290124, 0.0837369, 0.06882419, 0.08952394, -0.11652453, 0.02573346, 0.04548536, -0.030827563, -0.07207633, 0.09215473, 0.059331436, -0.10407422, -0.0065398877, -0.0020436684, 0.029421821, 0.027004374, 0.082220115, -0.025305893, -0.095335074, 0.08477274, -0.01630641, 0.037336934, 0.09700146, -0.098956995, 0.08489106, -0.044722375, 0.049662776, 0.10237098, -0.081315905, -0.059793085, 0.030677475, 0.09767007, -0.0074415747, -0.11160349, -0.042995315, -0.07574731, -0.066141345, -0.068602026, -0.089131325, -0.1381747, -0.04722197, 0.058583252, 0.0066340417, 0.08674185, -0.063734755, 0.048488993, -0.087368846, -0.019052181, 0.03346779, 0.08239059, -0.09920174, 0.026774812, -0.110980056, 0.10734409, 0.079085566, -0.024192592, -0.015662484, -0.09055795, -0.07721798, 0.05588748, 0.027838705, -0.050395094, 0.011109592, -0.09189967, -0.12626036, -0.11612173, -0.054520972, 0.048472025, 0.06979221, -0.124694794, -0.0100843925, -0.09658671, -0.07853374, 0.047048703, 0.025711846, -0.09498259, -0.041951388, -0.10703438, -0.07917613, -0.051517285, 0.017918661, -0.04076085, -0.05771897, 0.019831948, -0.11303537, -0.04176104, -0.08294563, -0.093416445, 0.027675763, -0.020134637, -0.068042554, -0.019767396, 0.11189713, 0.08328355, -0.040986516, 0.107700236, 0.09158436, -0.02097138, -0.016897913, -0.111159876, -0.04530927, 0.05305502, 0.10755532, 0.10949909, -0.1164324, 0.062005054, -0.0960008, 0.097179025, -0.04235464, 0.053536654, -0.10351665, 2.5168656e-05, 0.081867054, 0.07244492, 0.08775167, 0.013362479, 0.087932296, 0.09519721, -0.07013863, 0.04248168, -0.1055947, 0.042069193, -0.12038538, -0.09267351, 0.07433455, 0.10847291, -0.030678429, -0.11472107, -0.09539455, -0.041437954, -0.12847881, 0.09445065, 0.039420027, 0.06438631, -0.074728094, 0.004117465, 0.009098909, -0.06459987, -0.023340164, 0.09195417, -0.07782016, 0.041560285, -0.062442955, -0.012996038, -0.018369399, 0.033248138, -0.049991503, -0.10807626, -0.014190492, -0.0686501, -0.046776235, 0.055282723, -0.011179293, -0.069923356, -0.12137923, 0.017938508, -0.075950526, 0.0063335304, -0.005153312, 0.106151834, 0.02149939, -0.11407856, -0.089837976, -0.030844508, 0.011965871, -0.00034949966, -0.033476923, 0.101451665, -0.069455996, 0.057606865, 0.0030837923, -0.03466421, -0.0018444634, -0.11866535, 0.052495807, 0.055151016, 0.059427176, -0.07260744, 0.06545383, -0.025329338, -0.07885947, -0.050433494, -0.07000853, -0.019280693, -0.07337953, -0.03538057, -0.083850324, -0.08599889, 0.021532753, -0.001167792, -0.00872003, -0.101975225, -0.0458342, 0.023701675, -0.062172983, -0.07029776, 0.07870552, 0.10543909, -0.041723035, 0.04266205, -0.08201311, -0.0069739553, 0.060603518, -0.0654279, 0.040300865, -0.017209578, 0.04879115},

				{ 0.013238403, 0.13384597, -0.187199, 0.2077532, -0.373171, 0.06332605, 0.023426104, 0.11008518, -0.051164974, 0.054247934, -0.20616499, 0.20933402, 0.11369022, 0.079622164, -0.18474716, 0.0768247, -0.2558127, 0.24605961, -0.115897365, 0.053157553, -0.23452562, 0.0038127296, -0.22521324, 0.2226364, 0.050940022, 0.054908894, -0.25269884, 0.01338518, -0.35920998, 0.27955645, -0.01094138, 0.050242253, -0.1899835, 0.098520875, -0.18385987, 0.3112256, -0.06922488, -0.02657442, -0.26857886, -0.081212156, -0.2867379, 0.2303699, -0.0075545693, 0.12090478, -0.19653057, 0.10120489, -0.2812035, 0.18173857, -0.0368614, 0.10473409, -0.15352586, 0.1356013, -0.087031305, 0.30240616, 0.009838546, 0.1193417, -0.26373053, 0.057953533, -0.045409944, 0.11696154, -0.013524833, 0.1655005, -0.14839524, 0.1515623, -0.23457946, 0.26017734, -0.19869858, 0.095313475, -0.17800501, 0.14888766, -0.07859264, 0.076173276, 0.018996704, 0.064471155, -0.13645926, 0.081815526, -0.08213863, 0.18838508, 0.004878023, 0.18192875, -0.05444405, 0.048013844, -0.10874744, 0.12849475, -0.058362663, 0.02720867, -0.14009382, -0.012864192, 0.045437798, 0.13034771, -0.10169203, 0.18793555, -0.1479297, 0.038683865, -0.024975458, 0.18470106, -0.14651915, 0.26322776, -0.15883142, 0.21026623, 0.06667618, 0.1302152, 0.02206624, 0.25263128, -0.2464432, 0.12643099, -0.0058370316, 0.16564915, -0.13419665, 0.113267794, -0.250311, 0.14575554, 0.08405547, 0.14087325, -0.15499386, 0.039538365, -0.20320512, 0.072409585, 0.1728877, 0.13858561, 0.013974531, 0.15474346, -0.15766814, 0.19217858, 0.27464643, 0.18342958, -0.061519664, 0.11300907, -0.21581736, 0.031609345, 0.07671828, 0.27467552, 0.010215939, 0.08248263, -0.19127625, 0.11610031, 0.28625685, 0.035173547, 0.1499894, 0.20586358, -0.120689295, 0.040145334, 0.17512138, 0.16067235, -0.1480844, 0.16464047, -0.19279443, 0.06663504, 0.13900743, -0.03852627, 0.12418421, 0.021898346, -0.12799498, -0.0017274335, 0.24761468, 0.1582132, -0.041536823, 0.09249068, -0.15881379, 0.11416434, 0.33375868, 0.13971059, -0.021879323, 0.072500505, -0.12296579, -0.078190826, 0.27322084, 0.031882014, -0.02457867, 0.15119512, -0.030356774, 0.029971967, 0.29490635, -0.091397114, 0.08003619, 0.25231472, -0.2523748, 0.0073405253, 0.17054461, -0.014514389, -0.18001914, 0.2652312, -0.09680376, -0.025896363, 0.2635879, -0.08644142, 0.008089173, 0.12226879, -0.06230931, 0.06706744, 0.027129507, 0.1513541, -0.083014585, 0.13949436, -0.20335409, -0.03812199, 0.0053611044, 0.0096232025, 0.020364098, 0.11025436, -0.0062271473, -0.065227196, 0.050398607, 0.1938461, 0.061781753, 0.115780294, -0.26052126, -0.06268897, -0.1253241, 0.16717692, -0.23342633, 0.15542798, -0.046688545, -0.009183848, -0.08621882, 0.17646487, -0.10491341, 0.019557334, -0.009205331, -0.0066666375, 0.003257079, 0.21909821, 0.003908555, 0.19091034, -0.15430507, 0.11328735, -0.0036813405, 0.36653, -0.11814557, 0.25641358, -0.11702072, -0.033410426, -0.06482868, 0.20580482, 0.04569627, 0.28041455, -0.16952156, 0.16880356, 0.14207475, 0.24579537, -0.11557989, 0.24531282, -0.19491711, 0.038697764, 0.04106708, 0.28873408, 0.08106888, 0.17497908, -0.10569462, 0.15974268, 0.15639131, 0.25857064, -0.018095398, 0.2241121, -0.2097288, 0.19753212, 0.09509151, 0.24612641, 0.0068308003, 0.13596319, -0.22003497, 0.12861957, 0.14587605, 0.20256543, 0.0901901, 0.20507003, -0.18489465, 0.23284563, 0.19481978, 0.3047517, -0.058312163, 0.111595765, -0.19790006, 0.053367317, 0.07945222, 0.3008911, -0.039991878, 0.14282548, -0.16439435, 0.13010128, 0.034956265, 0.24727374, 0.023873251, -0.03909377, -0.12026036, 0.17896862, 0.014050685, 0.15881224, -0.007707284, -0.028090902, -0.091193944, 0.24979635, -0.00038071352, -0.04171605, -0.13250569, 0.0999877, -0.14818402, 0.28277525, 0.076028384, 0.14293696},

				{ 0.07752354, -0.038728803, 0.033122573, -0.10612097, 0.024097083, 0.09986506, -0.0105005065, -0.076851375, -0.114740394, 0.045431364, 0.081476465, -0.06485465, -0.119821884, -0.020966493, -0.05653801, 0.0040954934, -0.06289228, 0.0024667555, 0.0961103, 0.02587825, -0.07723696, 0.07923871, 0.011934868, 0.032389782, -0.031842876, -0.10856342, -0.03243613, 0.008692667, -0.09757563, 0.014559709, -0.08486987, 0.034677386, -0.07175255, -0.058116063, 0.018687245, -0.05781312, -0.09666282, 0.08165116, -0.03186822, 0.06329232, 0.043543216, 0.018836137, -0.080244295, -0.06774264, 0.10683303, -0.110116616, -0.014682851, -0.11894569, 0.090361536, -0.022448411, 0.10618896, 0.09495594, 0.10074953, -0.049282223, 0.041557726, -0.010048941, 0.057615466, 0.021693604, -0.08868805, -0.0713579, -0.06912673, -0.060509153, -0.11280782, 0.025171893, 0.061925292, -0.1254908, -0.109701425, -0.015717711, 0.108293615, -0.06186238, 0.052099433, -0.03105128, -0.108504765, -0.038833626, 0.030622654, -0.0040448625, -0.12748328, -0.033757683, 0.023646241, -0.08679625, 0.04226489, -0.02951137, 0.06902723, -0.020322453, 0.04233827, -0.12638141, 0.030161945, 0.083002605, 0.024969906, -0.03049395, 0.080153964, 0.09713194, 0.013393236, 0.08711072, 0.03225521, -0.12379989, -0.1059791, 0.06615254, -0.10441139, 0.100329004, 0.011398621, -0.080621056, 0.011299671, 0.033106733, 0.057989188, -0.08956607, 0.025824845, 0.084449664, -0.12390504, 0.042389687, -0.10794597, -0.09694947, 0.04622816, -0.103583336, 0.010635504, -0.10099641, -0.042501796, 0.041710876, -0.103926495, -0.030840794, -0.06754058, 0.066935495, -0.12355309, 0.000878427, 0.087165214, -0.019818729, -0.012660173, -0.022710042, 0.039490864, -0.0456557, 0.083950475, -0.105631426, 0.09240609, 0.05234317, -0.03332706, -0.028825594, 0.07060603, -0.10669015, -0.07091355, 0.069981545, -0.09821561, 0.05643893, 0.0562561, 0.081536815, -0.10508504, -0.10482243, -0.006684286, 0.010968738, 0.016835023, -0.118949525, -0.10697639, 0.08778153, -0.0829345, -0.028517103, 0.00254891, 0.041553173, 0.062450446, 0.09612137, 0.06675934, -0.0026537222, 0.05338077, 0.068747155, 0.021632476, -0.12240326, -0.09604074, -0.108478084, 0.06960082, 0.0025192176, 0.036352128, 0.06477102, 0.06708484, 0.04640451, 0.09133038, -0.12399014, 0.037484646, -0.0951935, -0.11337607, -0.12232097, -0.02359151, 0.10764528, -0.123662055, 0.06994136, 0.1011184, 0.086838104, -0.11482052, 0.054766957, -0.028797194, 0.053955622, 0.06351304, 0.10227175, -0.0672013, -0.0029195314, -0.062254846, 0.06752571, 0.0033522216, -0.13007046, 0.005688808, 0.09764532, -0.049117777, 0.06631248, -0.027440408, -0.09121986, -0.11417301, 0.017464517, 0.04053159, -0.040560864, 0.04943292, 0.019713584, -0.045576368, 0.11449356, 0.043678652, 0.013008629, -0.1252143, -0.017631559, -0.029119734, 0.044400454, -0.047380827, 0.018214187, 0.100960985, 0.017995039, -0.08614619, 0.019096673, 0.01271761, -0.11852694, -0.12448975, 0.041521635, 0.063057885, 0.04586298, 0.017143443, 0.060895614, -0.031608474, -0.025661623, -0.09069602, -0.04967024, -0.123043165, -0.061963942, 0.028488582, -0.04184077, -0.023342997, -0.0021703648, -0.059144918, -0.11396439, -0.03967643, 0.07883911, -0.081349134, -0.049373686, 0.02388952, -0.03531415, 0.004862767, -0.021886429, -0.1212422, 0.04247381, -0.044213705, -0.00083082047, -0.0020572569, 0.032878645, -0.009012937, -0.047976755, -0.08416625, 0.084354855, -0.06031047, -0.07015745, 0.099126495, 0.025737302, 0.061668582, 0.08022185, -0.01857123, -0.03755237, -0.0045509706, -0.051527612, -0.027974686, 0.06986564, 0.09196027, -0.06436599, 0.032967795, 0.032071926, 0.07358822, -0.052066777, -0.100295015, 0.057595655, -0.008745365, 0.040167477, -0.119682975, 0.030475184, -0.08429028, -0.08908443, 0.02527434, -0.029075317, -0.07927854, 0.06037223, -0.089228176, 0.0023898438, -0.06014937, 0.047879808, 0.009384209, 0.092144705, 0.048630822, 0.10096759, 0.0072583444, -0.11092951},

				{ -0.04951722, -0.071161196, 0.023980007, -0.041566033, -0.026180403, 0.04626664, 0.0041364157, -0.111179434, 0.08713057, -0.10456213, -0.12110781, 0.005678632, -0.06667914, -0.038197733, 0.056571156, 0.10269285, -0.1253018, 0.020585729, 0.01999387, -0.0019849066, 0.02374439, -0.02171654, -0.09469172, -0.048803132, -0.048830215, 0.10323656, -0.0056631425, -0.007413324, -0.06211545, 0.054424975, -0.026012376, -0.0900626, -0.08283329, -0.11921796, -0.055358816, 0.07042319, -0.051471304, -0.09669417, 0.03571056, -0.042019367, -0.01987338, -0.0880431, -0.018099388, -0.081024885, 0.01775043, 0.024640335, -0.03595035, -0.0059662284, 0.100699246, -0.06880301, -0.031339817, 0.013021061, -0.10557681, -0.09922399, 0.033493817, 0.009294185, -0.039429396, 0.08945062, 0.09008933, -0.02616824, -0.011182847, -0.010194794, 0.043688342, 0.047285043, 0.10738572, 0.06452733, 0.083065584, 0.06877856, -0.0979691, 0.06660214, -0.11419129, 0.009220523, 0.060703333, 0.09618154, -0.12711029, -0.07589863, -0.03632506, 0.057816748, 0.10297556, -0.012358339, -0.04862308, -0.106105596, -0.046755638, 0.041855216, -0.12754522, 0.085349664, -0.11207965, 0.076077245, -0.108097404, 0.05042079, 0.05282159, -0.054475464, -0.0022101616, 0.1020681, -0.09852466, -0.116746604, 0.075440936, 0.017490523, -0.03843358, -0.034792997, 0.014440199, -0.0447854, -0.068907924, -0.09789854, -0.093617514, -0.082974784, -0.014584557, 0.049078785, -0.059869662, 0.071141824, -0.076601125, 0.103769325, -0.08461736, -0.0592634, 0.09197278, -0.012624696, -0.056077134, -0.042773247, -0.11551772, -0.040739596, -0.01539723, -0.05846033, 0.057159014, -0.104553066, 0.027773166, -0.11240947, -0.11637038, 0.070461124, -0.08051278, 0.011216805, 0.10503538, -0.118894294, -0.09286432, -0.07559361, -0.06910297, 0.06378732, -0.043553144, -0.10491658, -0.088931285, 0.013620961, -0.05824837, -0.12171781, 0.023865508, -0.0960595, 0.102825776, -0.05339483, -0.006512106, -0.053998288, -0.106267475, 0.027944317, 0.020337455, -0.100462936, 0.06666414, 3.63202e-05, -0.04818349, -0.08734098, -0.047278956, 0.032217544, 0.050004028, 0.00854844, 0.09267507, 0.05756941, 0.0017188082, 0.005837332, 0.013593041, -0.039946, -0.035292905, 0.08320604, -0.00040505707, -0.1103321, 0.019686857, 0.04006679, -0.047694165, -0.035729643, -0.018406622, -0.07178988, -0.05301702, -0.081354395, -0.018127447, -0.008130601, 0.086165085, 0.038439337, 0.10862976, -0.09610624, -0.015279806, -0.073156625, 0.034729503, 0.093238294, 0.039613787, -0.08531916, 0.06879875, 0.0037858093, -0.04951003, 0.09426183, -0.06050359, -0.0382675, -0.049285077, 0.013289128, 0.02499463, -0.07603399, 0.0208299, 0.090444155, -0.056850985, 0.07151143, -0.07064288, -0.08972879, 0.064573675, -0.042083323, -0.0058986293, -0.06516138, -0.018639034, -0.00932556, -0.027763614, -0.09442155, 0.0063437787, -0.07585476, -0.12630534, 0.04017717, -0.096682236, 0.052896515, -0.016167728, -0.033015516, -0.016874751, 0.10036411, -0.043103408, -0.012124954, 0.071651585, -0.10732299, 0.06903943, 0.002508023, 0.066401914, 0.101727985, -0.115263775, 0.100005336, 0.03366181, 0.06042978, 0.080936186, -0.018666245, -0.11577717, 0.054401428, 0.100792326, 0.038591895, 0.048744306, 0.10352827, 0.037652124, -0.07608796, -0.090625785, -0.04574747, 0.07985977, 0.07548285, -0.045799725, 0.09132987, 0.01372554, -0.04772722, 0.0686165, -0.12065652, -0.0730646, 0.06916268, 0.086265676, -0.08365033, -0.12054496, 0.009312304, 0.071767636, -0.05184056, 0.0958877, -0.11874583, 0.066349275, 0.070160255, -0.08406247, -0.0194127, 0.07758464, -0.07660831, 0.07400721, -0.015963782, 0.0728786, 0.072720535, -0.08520499, 0.025890635, -0.025480215, 0.10532652, 0.064401396, 0.08255039, 0.030028505, -0.0068350374, -0.061542325, -0.03289556, 0.10283879, 0.09919866, -0.00878007, -0.097154714, 0.008722426, -0.072745904, -0.05030247, -0.035507128, -0.08597846, -0.047602303, -0.1146095, 0.027033545, -0.018198214, -0.11398587},

				{ 0.040169224, -0.11011133, -0.085266784, 0.042942025, -0.1121175, 0.070816316, -0.07996647, 0.037416574, -0.12255478, 0.042961724, 0.09118916, -0.06577684, 0.006577369, -0.050856803, 0.07070021, 0.058982246, 0.108117074, -0.12033703, 0.011564511, 0.0031192151, 0.021207312, -0.11918951, 0.029939175, 0.07342945, 0.080920406, -0.062493443, -0.070979215, 0.036993343, -0.029902073, 0.10640661, 0.086747184, 0.0098777665, -0.036882505, 0.09388303, -0.12040841, -0.097199015, 0.047145147, 0.037537087, 0.0185801, -0.10549586, -0.05956809, -0.07836757, -0.11341601, -0.005194609, -0.074800484, -0.041499104, 0.007712405, -0.09758134, 0.0042040483, 0.045409255, 0.078750096, -0.10433174, -0.013552407, -0.08873711, 0.0727674, 0.08131206, 0.07392965, 0.0818442, -0.05764431, 0.0556192, 0.034577243, -0.10437587, -0.08945375, 0.021214148, 0.038220283, 0.08603056, -0.08528299, 0.05453227, -0.08651794, -0.09013114, -0.033224404, 0.003972284, -0.07176515, 0.025257299, 0.07182551, 0.016252806, 0.07994819, -0.027002223, -0.012055084, -0.04478774, 0.095752195, 0.07936212, -0.12486463, -0.067216404, -0.11028427, -0.11923712, -0.11862362, -0.013512198, 0.07316698, -0.05978469, -0.020243268, -0.0879067, -0.062103406, 0.055675652, 0.09610572, -0.060151756, 0.10392956, 0.08557951, 0.082902625, -0.112214655, 0.024634097, -0.073246814, -0.076745324, 0.09344639, -0.023868078, 0.053489245, -0.095952064, -0.082154356, -0.02429119, 0.053439256, -0.061658073, -0.042746402, -0.10033745, -0.11891689, 0.030360727, -0.08259608, -0.10736203, -0.09073361, -0.10057304, 0.012140733, -0.0570218, -0.00411793, -0.030583339, -0.05439832, -0.0315329, -0.032286778, 0.07878128, 0.1004543, 0.0012247514, -0.116573215, -0.10567778, -0.0125220455, -0.05361967, -0.020524802, 0.054443043, -0.05273589, -0.10138906, 0.018756839, -0.12289281, -0.07505468, -0.015279578, 0.03088803, -0.053403586, -0.0085346345, 0.014229844, -0.063346446, -0.09675535, -0.082323454, -0.03873934, 0.09792506, -0.12486602, 0.055329695, -0.10154572, -0.018265754, -0.10027194, 0.022827221, -0.11129613, -0.062807545, 0.025177654, -0.034981206, 0.0353705, 0.055242006, 0.09695567, 0.0006620772, -0.103566624, 0.04128032, -0.050370388, 0.037789483, 0.012715271, 0.009228688, 0.06981918, 0.032726295, -0.00815305, 0.10971282, 0.09296388, -0.07209378, -0.049590066, 0.08212351, -0.028529532, -0.016798573, 0.09656575, 0.09832434, -0.027783537, -0.03636547, -0.037568033, 0.10572143, -0.07353276, -0.033243783, -0.06859632, 0.019881463, -0.071187206, -0.034823135, -0.020773916, 0.078211404, -0.1083067, -0.050923664, -0.09829742, -0.07235509, 0.065587215, -0.079944015, 0.08667495, -0.09955442, 0.009060627, -0.04265536, 0.09596642, 0.047083993, 0.07419421, -0.05837787, 0.009857191, 0.080802076, 0.0478404, 0.089112185, 0.030485857, -0.12240209, -0.10425284, 0.039129116, -0.0022919404, 0.010509584, 0.0753141, 0.040177286, -0.06886179, -0.12561479, -0.11355365, -0.028263165, -0.05843825, 0.10087886, -0.12799624, -0.07932314, 0.09554522, -0.09501553, -0.053924523, -0.09732094, -0.035099015, -0.06393529, -0.089908905, -0.060904, 0.07966059, 0.030920092, -0.034532446, 0.050582528, -0.05030274, -0.016624415, 0.05518759, 0.061080966, 0.076980345, -0.0983616, 0.029521624, 0.010166435, -0.06633254, 0.067856625, -0.05363593, -0.010579112, -0.10291744, -0.05126222, 0.053977426, -0.06335575, -0.007885096, -0.030546285, -0.02611116, -0.09383489, 0.06809891, -0.030641746, 0.104539454, 0.07055772, 0.07235324, -0.04181563, 0.09605859, -0.10157755, 0.0774259, -0.1178488, -0.10804252, -0.083756804, -0.11729028, 0.08144786, 0.023172347, 0.06106483, -0.09637641, 0.09027754, 0.09489317, -0.007910909, -0.0019658017, -0.009079647, -0.022907365, -0.027228197, -0.040644176, 0.036284897, 0.05978038, -0.12124155, -0.11424243, -0.12088085, -0.093493104, 0.04403423, -0.108824484, -0.012757887, -0.109577246, 0.08592853, 0.10801416, 0.017781923, -0.06253428, 0.10019401},

				{ 0.078866184, -0.005511656, 0.08187237, 0.29519075, 0.2226568, 0.5391038, 0.03312646, 0.00062423386, 0.03147064, 0.41669223, 0.02087358, 0.7060686, 0.013100853, -0.018665832, 0.080168, 0.2478357, -0.06918251, 0.7759091, 0.016927667, -0.04027605, 0.08169204, 0.3559854, -0.11407832, 0.94286484, -0.0753245, -0.053362027, 0.066590674, 0.28895557, -0.23340999, 0.7971679, -0.05640958, -0.021329725, 0.064159356, 0.28743598, -0.048976272, 0.7222547, -0.010694901, 0.019967476, 0.026843293, 0.3238974, -0.13535951, 0.63627386, -0.09120184, 0.01831906, -0.024153346, 0.21504337, -0.14426415, 0.6339497, -0.016308824, 0.05231913, 0.008950029, 0.25645489, -0.23159988, 0.33648676, 0.003958144, -0.03699325, -0.03280821, 0.08874641, -0.25959095, 0.14553794, -0.00046434405, 0.082419604, -0.010864693, 0.0663465, -0.1646225, 0.12525015, 0.048899796, 0.12520579, 0.002763111, -0.03328805, -0.030177612, -0.16018705, -0.031340025, 0.04647447, -0.07070593, 0.024194878, -0.20398046, -0.23625451, 0.085511714, 0.007468839, -0.062444896, -0.27624938, -0.13837224, -0.41971415, -0.005028833, -0.024733769, -0.07694919, -0.14352491, -0.052407026, -0.7888044, 0.11275302, -0.10981322, -0.035641365, -0.31960818, 0.054454286, -0.9657205, 0.10118366, -0.071519926, -0.030678729, -0.31221253, -0.099973455, -0.9585551, 0.10546489, -0.013930642, -0.023546945, -0.28556395, 0.03561121, -1.222735, 0.165653, 0.011886129, 0.033994503, -0.2646812, 0.022030903, -1.4048284, 0.17890158, -0.027509945, -0.03808109, -0.19392571, 0.024241159, -1.4348905, 0.22837132, 0.032987237, -0.06378093, -0.303691, 0.027212728, -1.4577093, 0.14195509, 0.019127447, -0.034687232, -0.15420906, 0.13916688, -1.4259019, 0.009877032, -0.03997894, -0.0109635815, -0.27867827, 0.14628339, -1.3245121, -0.03210717, 0.024987355, 0.08974482, -0.27106398, 0.23917586, -1.1145707, -0.08934055, -0.021795195, 0.02444193, -0.18941437, 0.40171614, -0.9621835, -0.07417838, -0.044361435, 0.071479894, -0.027749704, 0.26000327, -0.8731791, -0.11678984, -0.077443354, 0.00963366, 0.0050794897, 0.37826756, -0.81596404, -0.24449584, -0.06858463, 0.09325463, -0.054693047, 0.30673212, -0.76699066, -0.15516275, -0.103683084, 0.014878494, -0.0032130722, 0.22453132, -0.63436264, -0.09045834, -0.06585037, 0.031496286, 0.03967908, 0.25450584, -0.39084432, -0.13040781, -0.111199334, 0.10924387, -0.093631454, 0.22139893, -0.2613343, -0.066821545, -0.09436971, -0.012523416, 0.1238543, 0.20351584, -0.07632748, -0.09358993, -0.16341239, 0.039495114, 0.11718895, 0.13645366, -0.06366097, -0.039011277, -0.18164994, 0.07760718, 0.1006328, 0.04501179, 0.13989684, -0.055869006, -0.20955253, 0.017316537, 0.07835577, 0.13513498, 0.38799405, 0.011006651, -0.051788256, 0.12302145, -0.02798131, 0.10551912, 0.46487105, 0.04407203, -0.019138943, 0.073994905, 0.06554288, -0.020780988, 0.6787641, 0.07133434, -0.09200502, 0.041154385, 0.08487088, 0.080258586, 0.6474113, 0.13176478, -0.04310861, 0.053344615, 0.06358272, 0.0025249645, 0.9653528, 0.10955317, 0.007301653, 0.028061278, 0.14712802, 0.06362278, 0.892245, 0.05837014, 0.07996301, 0.007986278, 0.048955675, 0.05280318, 1.1072875, 0.050022274, 0.08424846, -0.0591782, 0.013410566, -0.18922757, 1.0294839, 0.0027262957, 0.0313537, -0.06614949, -0.088108696, -0.15680571, 1.0140214, -0.0010712397, 0.012588483, -0.15491293, 0.03015712, -0.25399494, 0.8219021, 0.12048249, 0.07720476, -0.035976533, -0.09263968, -0.28806078, 0.6959252, 0.050352048, 0.041257598, -0.047531452, 0.12584022, -0.10683842, 0.51958746, 0.09677976, -0.04284028, -0.0052403593, 0.15832266, -0.23521185, 0.57435364, 0.12905128, 0.018332275, -0.123982504, 0.00041130645, 0.0023734525, 0.20687422, 0.04582964, 0.10411285, -0.10935631, 0.08661684, -0.09862627, 0.17086284, 0.091202736, 0.11095139, -0.07184723, -0.017564693, 0.0569637, -0.15285292},

				{ 0.08058328, -0.042330872, 0.009365849, -0.08576436, 0.0810165, 0.0695597, -0.11687749, -0.09736304, 0.016621318, 0.027778668, 0.02006112, -0.040353067, -0.049716454, 0.094295174, -0.119675756, 0.030115282, -0.10211582, -0.010007159, 0.057672266, 0.08507218, -0.10009375, -0.07815231, 0.043125436, -0.008231331, -0.08347657, -0.04777817, -0.017263748, 0.020868767, -0.034174282, -0.01823293, 0.0451845, 0.027806245, 0.009548868, -0.0019002623, 0.08790712, 0.0977558, 0.010312771, 0.06382308, -0.028610855, -0.07696729, -0.07300087, 0.062972285, 0.025316639, 0.103716455, -0.08498329, 0.09765447, 0.022853415, 0.059548244, -0.03535641, -0.10412466, -0.09891231, -0.07150215, -0.09354762, 0.07992833, 0.08286439, -0.01803753, -0.02580698, 0.035493854, -0.0380533, 0.082683876, -0.09852479, -0.12383587, -0.09411617, 0.05824727, -0.0704289, 0.064877585, 0.10135498, -0.015402156, 0.09992937, 0.0072409688, -0.06811237, -0.102436475, -0.0325239, -0.09024053, -0.07483317, -0.10898805, -0.106253825, -0.03698675, 0.0137563925, -0.031995185, 0.108996965, -0.04061798, -0.031894743, 0.030133279, -0.041055296, 0.10741503, -0.09824534, 0.09246222, 0.07922184, 0.01717826, 0.070681535, 0.046818875, 0.071026206, 0.06228519, -0.035125542, 0.030781154, -0.029635482, -0.049684178, -0.020467218, 0.023575798, 0.044458177, -0.06673692, -0.06866575, -0.05106263, -0.12362407, 0.09897823, -0.011905576, -0.12621638, -0.03292276, -0.05063376, 0.020251743, -0.050705362, 0.07532281, -0.035286024, -0.07143846, -0.06711041, -0.08188975, 0.009449192, -0.058273993, -0.05933039, -0.09974893, 0.06136205, 0.00082417915, -0.00036151876, -0.03806079, 0.010758428, -0.04654837, 0.036604684, 0.0315875, -0.098213606, -0.06424605, 0.054374047, 0.1073415, -0.036709357, -0.11877809, -0.049908847, 0.026810622, -0.060356025, -0.031957224, -0.06671963, 0.020035956, -0.10981597, 0.070651025, 0.047891993, -0.11773162, 0.01904454, 0.10654641, 0.10903475, 0.09211213, 0.0067142965, -0.033702098, -0.023677828, 0.07198002, 0.08868176, -0.10840478, 0.0016061688, 0.09085423, -0.061376896, 0.0639985, -0.108446546, 0.09458014, 0.03340888, -0.08657093, -0.11663567, -0.087252215, -0.11740069, 0.030107712, -0.08208267, -0.0069839377, -0.12679963, -0.057242125, 0.06495951, -0.040370602, 0.055173557, 0.038427457, 0.00095260673, 0.01888217, 0.07370774, 0.07389145, 0.05624193, 0.03725714, -0.08543683, 0.009781876, 0.061921634, -0.07087193, 0.043174516, 0.08010915, -0.054497667, -0.07979005, 0.049144726, 0.054920353, -0.029253375, 0.07987238, -0.11853394, 0.0022578114, 0.1068116, 0.05125611, 0.029176649, -0.009193892, -0.0305917, -0.024063243, -0.017790763, -0.08189648, -0.07901074, -0.05941277, 0.01874095, -0.0052228696, -0.10694977, 0.03447395, -0.06447996, 0.05256973, -0.042229634, 0.023072215, -0.026787277, 0.103278525, -0.02382797, 0.04276969, 0.0034313113, 0.052681964, 0.046204887, -0.09089451, -0.05948979, 0.0649356, -0.08907428, -0.066276, -0.041228954, -0.0016264293, -0.057805337, 0.07033221, -0.10930658, 0.048222147, 0.052317742, -0.0043102377, 0.10913924, 0.08375702, -0.046874475, 0.034663502, -0.025475843, 0.019298699, -0.08250097, 0.0818766, -0.03880288, -0.017995264, 0.0940285, -0.039630197, 0.052183732, 0.02969566, -0.094115585, -0.0825109, -0.01555218, -0.01697276, -0.020506982, -0.054150153, -0.09277759, -0.11507581, 0.09129804, 0.026254008, 0.103933126, 0.04369323, 0.04345295, -0.005902266, 0.037754238, -0.112681456, -0.08737475, -0.058062617, -0.08111366, 0.0672662, -0.0314436, -0.016179472, -0.041083146, -0.05250481, -0.03498186, 0.096567765, -0.0797245, -0.09845921, -0.077696905, -0.11914738, -0.07497859, 0.04210093, 0.046722062, 0.040890977, 0.084340185, -0.037293307, -0.060039498, -0.04093087, 0.057501815, -0.10949575, 0.039684474, 0.056320317, -0.08350496, 0.086737275, -0.06706976, 0.031105401, 0.017896451, 0.09789699, 0.045766614, -0.11679401, -0.015208789, 0.08121055, -0.0033350633},

				{ 0.09746991, -0.0832859, 0.07349084, 0.28129476, -0.21535732, -0.41306496, -0.12539932, -0.04072646, -0.0506639, 0.092829585, -0.06085313, -0.22795998, 0.2232729, 0.15522361, -0.14545935, 0.10476045, -0.10752922, -0.019270884, 0.17984088, 0.08373008, 0.099775985, 0.023720866, -0.21141106, 0.12891547, 0.08019746, -0.09037288, 0.12987757, -0.023432644, 0.0058783866, 0.05342941, 0.14287893, -0.089310855, -0.059904207, -0.12399428, -0.13553123, 0.12124115, 0.13946818, -0.08968647, 0.029518897, -0.024765274, -0.10649349, 0.14192094, 0.10595412, 0.064054936, -0.077039406, -0.008268699, -0.10270327, 0.023171525, 0.055938974, 0.06620222, 0.014857211, 0.087085046, -0.14255749, 0.14811006, 0.054392286, -0.05478866, -0.059889395, -0.017102836, -0.15044613, -0.070183605, -0.3034355, -0.12145707, 0.055787366, 0.045324165, -0.20378883, -0.07460276, -0.17406951, 0.057223834, -0.00018668905, 0.16378526, -0.05930211, 0.028183728, -0.028778045, -0.07691289, 0.04408298, 0.08857267, -0.09513895, -0.0567409, -0.15869966, -0.13504529, 0.010983886, 0.0945594, -0.2014256, 0.011945007, -0.08574958, 0.1602384, 0.18901321, 0.20914835, 0.0021234786, 0.033971112, -0.14448693, -0.15143552, 0.09000452, 0.19291206, -0.09226586, 0.1177515, -0.045844525, -0.13188069, -0.056780126, 0.27325532, 0.043404423, 0.091363564, -0.20255274, -0.0634866, 0.060285382, 0.3321102, 0.03598616, 0.13750042, -0.18913756, -0.015243404, -0.024428273, 0.27264705, 0.042214915, 0.111501254, -0.12881662, -0.000980098, -0.018685829, 0.22907574, 0.005545257, 0.09196574, -0.075156935, -0.09485882, 0.039265573, 0.30833218, -0.0027727657, 0.090096615, -0.17485985, 0.020997185, 0.109013945, 0.28194568, 0.08163552, 0.047781006, -0.15309149, -0.009897033, 0.09380064, 0.31419224, 0.07957757, 0.17020437, -0.035190858, 0.114723094, 0.0684395, 0.2349238, 0.15324454, 0.13905059, -0.026313938, 0.15256503, -0.02448099, 0.16006565, 0.29592943, 0.18017045, 0.015521323, 0.055245053, 0.06494088, 0.16641404, 0.20160745, 0.06750596, -0.124259114, 0.1529028, -0.024364553, 0.2552885, 0.25501835, 0.06735117, -0.1527393, 0.24299255, 0.048968047, 0.28153354, 0.21946381, 0.023464428, -0.014979119, 0.13550428, -0.07103754, 0.25218534, 0.18390335, -0.08598173, 0.0136044985, 0.032760054, 0.113966435, 0.30312446, 0.13736899, -0.16986504, -0.12622347, 0.130612, -0.037275087, 0.31215194, 0.1838292, -0.17041016, -0.11709155, 0.24931613, 0.07311147, 0.23953766, 0.1353329, -0.38390887, 0.09004776, 0.2004032, 0.08131145, 0.022224145, -0.06408831, -0.3872776, -0.045597274, 0.16453812, -0.13774014, 0.12527911, 0.0534404, -0.2853818, -0.044985607, 0.115477175, 0.022044959, -0.0994121, -0.07245723, -0.41324878, -0.018884437, 0.18528561, -0.040770054, -0.056188274, -0.035749137, -0.37141952, -0.055298418, 0.072574005, 0.06022548, -0.103198625, 0.012716181, -0.40166312, -0.013414083, 0.04757887, 0.17430373, -0.1822301, 0.04010961, -0.28293142, -0.15275668, -0.024243442, 0.147634, -0.2056166, 0.02292386, -0.36266688, -0.056610905, 0.109617405, -0.0017242695, -0.14300355, -0.1023894, -0.23074643, -0.08569588, 0.04495428, -0.07106213, -0.10170728, -0.07014361, -0.11513023, -0.06693187, 0.22205634, -0.049067613, -0.16674325, -0.12734976, -0.009985137, -0.19073527, 0.21855132, -0.0054450044, -0.010793084, -0.034639023, 0.058547284, -0.0063148807, 0.13962643, 0.05936259, 0.046551425, -0.20449764, -0.05202823, -0.090922184, 0.19670264, 0.05325771, -0.08811298, -0.26882628, -0.0062286216, -0.1082302, 0.13790376, 0.16508478, 0.042260498, -0.24083747, 0.089687504, -0.09280862, 0.15624893, 0.010881834, -0.02133452, -0.28061578, -0.10220825, 0.1176733, 0.12105601, -0.033344686, -0.1627607, -0.23192294, -0.15414667, 0.30202767, 0.064158626, -0.08659127, -0.090851575, -0.24897048, -0.15311177, -0.09980275, 0.042519722, -0.04216066, -0.12057853, -0.17772813, -0.30074263},

				{ 0.0042707287, -0.1538846, -0.13658097, 0.16928647, 0.44068524, -0.40903613, 0.07247033, -0.19139054, -0.080510296, 0.109817855, 0.3410827, -0.23837003, 0.07706264, -0.05728359, -0.11386131, 0.13357598, 0.36626887, -0.29454288, 0.07213703, -0.103890635, -0.03797494, 0.06632417, 0.2062886, -0.11472856, 0.08051895, -0.10534421, -0.06769261, 0.027276523, 0.20045993, -0.12332528, -0.040527485, -0.20796819, 0.08217494, 0.048030492, 0.32303616, -0.22151475, -0.013335564, -0.18641447, 0.022051923, -0.1780865, 0.3022446, -0.122584656, 0.010668773, -0.26355192, -0.14739805, -0.13800819, 0.19440266, -0.16467291, -0.0896163, -0.24034117, -0.10923291, -0.14238286, 0.07328523, -0.20853436, -0.037730258, -0.2486307, -0.056836333, -0.049397785, 0.21536082, -0.14319134, -0.018891187, -0.33531818, -0.02268901, -0.033922255, 0.07879163, -0.08478631, 0.09532211, -0.23018602, -0.025696311, -0.0500226, 0.051573668, -0.14565301, 0.13006994, -0.25731266, 0.1453245, -0.0711892, 0.23114753, 0.0029031269, -0.04559072, -0.23539746, -0.13278988, -0.006967651, 0.22885865, -0.11914172, 0.04069352, -0.33361274, -0.08987985, 0.039143816, 0.18511648, -0.12414979, -0.018838737, -0.2138882, -0.12063115, 0.0530918, 0.3996956, -0.044543374, 0.0026561487, -0.21484025, -0.031420566, -0.0350665, 0.5054726, 0.02054044, -0.0017032367, -0.19306065, -0.09024014, 0.016059801, 0.31916907, -0.102996506, 0.094929844, -0.064746864, -0.09792839, -0.024541093, 0.4883056, -0.19289753, 0.05955148, -0.2884859, -0.16459914, 0.041220605, 0.5493877, -0.22443835, -0.047929037, -0.15427274, -0.101767756, 0.21323517, 0.38010123, -0.069312654, 0.06949582, -0.16552731, 0.0041827383, 0.12968442, 0.4973744, -0.025182268, -0.027619895, -0.21205148, -0.036034252, 0.07938608, 0.40244582, -0.12025092, -0.011274204, -0.030145159, -0.0907359, 0.05775294, 0.51035476, -0.24369904, -0.13503702, -0.14177935, -0.12660472, 0.2626881, 0.5497218, -0.15392193, -0.028954405, -0.17775287, -0.1114055, 0.13534108, 0.4322773, -0.22986884, 0.08105292, -0.11763379, -0.10098657, 0.25884145, 0.4880146, -0.043044068, -0.0064006792, -0.18369535, -0.060011312, 0.128174, 0.368591, -0.19362977, 0.05625309, -0.13745645, -0.113137886, 0.1188319, 0.39756718, -0.086820655, -0.13570441, -0.22108202, -0.08369035, 0.2616369, 0.35915008, -0.22027344, 0.10769707, -0.15665281, -0.13068163, 0.1209289, 0.38238767, -0.070171535, 0.000626227, -0.12710299, -0.0026571653, 0.18141131, 0.35638276, -0.059895474, 0.05935149, -0.2466559, -0.0017027318, 0.097064435, 0.35092604, 0.01635196, 0.14743309, -0.21498196, -0.028385734, 0.3175772, 0.37923533, 0.048683688, 0.030816881, -0.15337689, -0.055579104, 0.25866026, 0.37186384, 0.0508795, 0.06746134, -0.13001215, -0.076291405, 0.28214493, 0.42231682, -0.03285709, -0.067035235, -0.122026086, 0.0726216, 0.35550293, 0.29446262, -0.048131116, -0.11290736, -0.14195988, 0.0056770747, 0.2807124, 0.45768428, 0.025472093, -0.06835916, -0.034444273, 0.096404955, 0.29622722, 0.4265085, 0.02562238, -0.10201804, -0.08069628, 0.013175023, 0.25950912, 0.38439164, 0.022207417, 0.0122960415, -0.07764738, 0.01684701, 0.35328475, 0.39225966, 0.09894047, -0.03172189, -0.10921565, 0.104480155, 0.31937712, 0.37776464, 0.007919203, -0.08226021, -0.19176261, 0.037099667, 0.22845526, 0.31804508, -0.081205726, 0.049113944, -0.123036735, -0.11307056, 0.20404992, 0.3537788, -0.11344831, 0.065436415, -0.124151304, -0.022443643, 0.24943428, 0.4244195, -0.17986599, 0.011032281, -0.22347519, -0.03627794, 0.41303, 0.32835522, -0.036718015, 0.02301472, -0.15661141, 0.069857515, 0.46098197, 0.25987113, -0.19908543, 0.0030192663, -0.13644394, -0.0025958405, 0.4178498, 0.49933624, -0.22664286, 0.0057819514, -0.08804621, -0.2081354, 0.4918509, 0.5147687, -0.30571625, -0.080449544, -0.18088704, -0.0631364, 0.5844452, 0.46846244, -0.4496754},

				{ 0.1915814, -0.2679834, 0.11225528, 0.19687858, 0.020392094, 0.39238143, 0.13290644, -0.31285235, 0.25102404, 0.13085656, 0.014020979, 0.40685016, 0.08110307, -0.09773409, 0.23960711, -0.10083758, -0.08268916, 0.2703477, 0.019692326, -0.25037488, 0.35936892, -0.116018854, -0.054301288, 0.023890423, 0.18581575, -0.15130769, 0.26405293, -0.123013034, 0.013947557, -0.0028927987, 0.081589326, -0.26959467, 0.13616553, -0.06285201, -0.012499864, 0.13947117, -0.013731222, 0.0015362132, 0.046852704, -0.018599289, -0.16077754, -0.051111706, -0.042678874, -0.0073263124, 0.025034757, -0.090419784, -0.1321117, 0.040687453, 0.04361523, -0.22764534, -0.010825068, -0.05262663, -0.102426775, 0.16876645, -0.058345795, -0.23093581, 0.094733894, -0.16249968, -0.09269542, 0.42368597, 0.09737378, -0.06256003, 0.088067636, -0.21396738, 0.033348728, 0.33426714, 0.105330475, 0.01519986, 0.21695423, -0.17259769, -0.025860066, 0.3376929, 0.10528753, -0.2296123, 0.2038954, -0.07213847, -0.010585299, 0.30955762, -0.049266975, -0.15725483, 0.12222258, -0.23012993, 0.11837333, 0.30448508, -0.1071935, -0.07644983, 0.086661935, -0.21480227, -0.009126054, 0.31440684, 0.09438642, -0.13165738, 0.26840746, -0.046064314, 0.022535887, 0.12737606, 0.16472685, -0.100362726, 0.1630099, -0.0957348, 0.076364525, 0.16107914, 0.019548824, -0.061800253, 0.33582512, -0.22768384, 0.16275844, 0.15150702, -0.054726776, -0.1043655, 0.2010545, -0.08132305, 0.093727544, 0.16369326, -0.0441874, -0.09579898, 0.1493127, -0.10301353, 0.11195741, 0.013139542, 0.021255838, -0.010544394, 0.17859343, -0.2126044, -0.049887773, 0.12230066, 0.146144, -0.07485898, 0.23266505, -0.06533959, 0.094166696, 0.1505872, -0.016013185, -0.041934714, 0.092093304, -0.063788995, -0.0022600642, 0.18245432, 0.01912253, -0.1081891, 0.1369694, 0.0851193, 0.008640642, 0.23253967, 0.10108528, -0.12413077, 0.06722958, -0.10071487, -0.07515182, 0.25835952, 0.090697184, -0.19748981, 0.137305, -0.0037351665, 0.09094792, 0.34836894, 0.15235412, -0.028969087, 0.33899847, -0.026258053, -0.018326111, 0.21407078, 0.06387269, -0.007998385, 0.21385257, 0.076616734, -0.041070774, 0.3874132, 0.13459173, -0.12408659, 0.095379665, 0.15295085, 0.07736288, 0.2777578, -0.09681426, -0.23876478, 0.19003657, 0.11881696, -0.057438437, 0.32622772, -0.123939715, -0.09469961, -0.05447471, 0.12745996, -0.15489763, 0.27721065, 0.022486765, -0.27950615, 0.010329746, 0.04900599, -0.16602327, 0.254674, -0.14437345, -0.07187791, 0.038674377, 0.101024665, -0.12424897, 0.26254103, -0.00824566, -0.063317, 0.11319411, 0.040766556, -0.10317685, 0.264273, 0.07835236, 0.013727864, 0.13009828, 0.00546273, -0.077287145, 0.1622376, 0.046628986, -0.08725119, 0.013559102, -0.023256384, -0.11479645, 0.074593075, 0.08418123, -0.12803453, 0.115487486, -0.069012314, -0.07798065, 0.16559559, 0.11648211, -0.09731847, 0.022857038, 0.07146619, -0.10781195, 0.087669075, -0.09531034, -0.23455334, -0.06056457, 0.15748706, -0.099901706, 0.20457949, -0.25227425, -0.14125471, 0.13061571, -0.03344903, -0.077961326, 0.07411379, -0.018366568, -0.22234835, 0.030775107, 0.09898624, -0.11848981, 0.14367041, 0.0033538875, -0.21456167, 0.13232918, 0.13212469, 0.11021583, 0.18409684, -0.18396777, -0.20594883, 0.15690507, 0.25551006, -0.032553345, 0.21170188, 0.07917792, -0.13040322, 0.058000796, 0.28433102, -0.008850923, 0.27460513, 0.08830715, -0.2786702, 0.016299604, 0.18480223, 0.04376484, 0.21503453, 0.11100373, -0.25831178, 0.18666735, 0.3101786, 0.018507594, 0.14889212, 0.06531713, -0.18126059, 0.25715616, 0.29025158, -0.22653417, 0.20649557, -0.11746633, -0.0011710098, 0.13862395, 0.09301201, -0.22265892, 0.13141403, 0.17421307, -0.21794526, 0.31170997, 0.17143086, -0.30539864, 0.18463784, -0.07233535, -0.19959521, 0.11713236, 0.26600048, -0.2755148, 0.14731899},

				{ -0.044433903, -0.090784326, -0.08885312, -0.07386434, 0.08393783, -0.0023048648, -0.042558968, 0.085688494, -0.070158355, 0.013061529, 0.08957519, -0.074151285, -0.019165479, -0.052734848, 0.039469622, -0.07694855, -0.09472418, -0.112936296, -0.063729495, -0.043783117, -0.02641964, -0.062951885, 0.059612982, 0.06725294, 0.0994339, 0.011763056, -0.1203061, -0.014846464, 0.073366635, -0.07131777, -0.08010706, -0.007105983, -0.07728438, 0.025418924, 0.046921533, 0.093484126, 0.038207263, 0.054273926, -0.0936055, 0.052911207, -0.028384415, 0.054783564, -0.024386397, -0.09925963, 0.038671903, 0.026823634, -0.09277266, 0.096102595, 0.083277054, 0.08879214, 0.07302633, 0.00015217105, -0.041453402, -0.06733263, -0.05040954, 0.056195017, -0.11846095, 0.07382145, 0.089654975, -0.10320157, 0.031346258, 0.032877646, -0.0006662577, 0.072047144, 0.07894949, -0.08092046, 0.08326495, -0.06961992, 0.025610523, -0.066529736, -0.004419351, -0.07979432, -0.09839523, -0.11206504, 0.08475919, -0.030847272, -0.08586664, -0.1161154, 0.0069182594, 0.05750926, -0.11508786, -0.08060697, 0.11001633, 0.013073337, -0.0016282514, -0.03303547, 0.111504205, -0.098347835, -0.058172, -0.04118171, -0.10511179, 0.029550752, -0.10899652, -0.117086664, -0.105794854, -0.044787485, 0.09429978, 0.06759486, -0.029414015, -0.0002264442, -0.073520504, 0.021656452, 0.012236042, 0.022888755, 0.030596945, 0.0028163306, 0.017570911, -0.04326423, -0.059309192, 0.016359817, -0.058725122, 0.0832278, 0.032778665, 0.090656735, -0.11093746, -0.10358947, 0.049839623, -0.014505707, -0.080807, 0.07633019, -0.11688549, 0.037850756, -0.09033211, -0.037625246, 0.06495271, 0.050165907, -0.10914158, 0.04560134, -0.011535, -0.090485014, -0.014619637, 0.035771426, 0.017410524, -0.115436435, 0.017459482, 0.02624975, -0.025494793, 0.101226024, 0.0211307, -0.08192275, -0.115806565, -0.047513057, 0.07824579, -0.08448157, 0.0126253795, 0.016066499, -0.1113406, -0.084286995, -0.09434202, -0.05505401, 0.08594834, -0.04522973, -0.01575585, 0.052001607, 0.059920255, -0.050883815, -0.024824684, -0.10215135, -0.11489082, -0.100075066, 0.062471803, 0.11043728, -0.02624501, 0.05086324, -0.10019868, -0.048174355, -0.055509757, 0.06926866, 0.048048813, -0.1216936, 0.039527632, 0.022529155, 0.098624706, -0.090098575, -0.059355494, -0.105410896, 0.03152095, -0.12068769, 0.012549534, -0.0052184784, -0.122839056, -0.01209983, -0.015970983, -0.049245473, 0.10033728, -0.11502116, -0.018183615, -0.01196153, -0.051446732, 0.019915199, 0.0080603575, -0.075687975, 0.038580097, -0.10615274, -0.013793469, -0.005639291, 0.059036028, 0.0058855084, 0.108624615, -0.08313146, -0.07971504, 0.056834154, 0.09050389, -0.005091044, -0.10665364, 0.033392567, -0.11873977, 0.014411542, -0.10480749, -0.071534045, 0.038938742, 0.09894565, -0.120475754, -0.0036990975, -0.06121939, 0.090943106, 0.09548324, 0.10918476, -0.026581323, -0.07875727, -0.020227185, -0.04954217, 0.09308334, -0.020145642, -0.017175611, -0.10719641, 0.09135579, 0.082991816, 0.07754022, -0.024151003, 0.058516048, -0.094282456, -0.04149493, 0.04795199, 0.10945758, -0.105758905, -0.11804214, -0.0045592966, 0.021523416, -0.10187423, -0.08285541, -0.043375745, 0.023920992, -0.08050666, -0.06665995, -0.033902578, 0.105203524, 0.104125515, -0.024833022, -0.07040078, -0.065325566, 0.079384275, 0.0039520855, -0.025257604, 0.030577596, 0.0036906495, -0.030383106, -0.047644053, 0.05935878, -0.10230823, 0.00011884204, -0.10720241, -0.11762222, -0.056347564, 0.09127116, 0.09095128, 0.044414517, 0.07399646, 0.054900676, -0.09159897, -0.008499287, -0.07132426, -0.10466429, 0.027937489, 0.08806018, -0.0841168, 0.095202714, -0.0049827616, -0.06969546, 0.033089664, 0.062908664, 0.027610775, -0.078343384, -0.04585308, -0.016180974, 0.044525307, 0.06489062, 0.009819338, -0.0033134427, 0.101338916, 0.04311412, 0.026089653, 0.046668373, -0.05339785, -0.060876682, 0.02802814, -0.057744734, -0.0992182, 0.11190335, 0.07323909},

				{ -0.031193059, -0.07699375, 0.011432844, 0.023515537, -0.29321125, 0.0069390982, 0.18738323, -0.03139868, -0.071105, -0.12952814, -0.319165, 0.0021946575, 0.13970657, -0.14554077, -0.109948575, -0.121688314, -0.12127029, 0.041679192, 0.17627151, -0.15928638, -0.13995536, -0.17200308, 0.013541545, 0.046959236, -0.012014507, -0.19512855, -0.013432336, -0.06351115, 0.05134349, 0.11905314, 0.18850058, -0.237458, -0.08261802, -0.03683226, -0.04920879, 0.1499337, 0.14404339, -0.11657844, -0.035375703, 0.03050845, -0.04807233, 0.22958915, 0.13019031, -0.2591938, 0.06257814, -0.10321279, 0.021656672, 0.09106008, 0.280269, -0.11713416, -0.027493136, 0.03169372, -0.037788372, 0.29165402, 0.14753334, -0.2264613, 0.043268036, 0.053048342, 0.044591136, 0.13273837, 0.10647004, -0.21267617, -0.0844725, 0.13525735, 0.01968259, 0.19901314, 0.30116647, -0.20737953, -0.099645756, 0.118485786, 0.18421955, 0.07567449, -0.06342613, -0.1156199, 0.07982907, 0.101481244, 0.16153178, 0.19004372, 0.29673076, -0.09377015, -0.14889069, 0.15566045, 0.16063212, 0.023273608, 0.21636264, -0.096059605, -0.12962146, 0.31777698, 0.25078136, 0.11106914, 0.191918, -0.12161744, 0.02667337, 0.2577721, 0.2707394, 0.07262999, 0.14892615, -0.08038039, -0.15883154, 0.24043192, 0.28053242, -0.07944871, 0.11824995, -0.14164774, -0.07785291, 0.16793102, 0.31322354, -0.14585312, 0.22819345, -0.10349448, 0.008472458, 0.13745183, 0.17681389, -0.16619788, 0.1023764, -0.09177814, -0.1162151, 0.07660108, 0.22925875, -0.17112222, 0.24811293, -0.19238539, -0.15765053, 0.13960096, 0.035497855, -0.10885442, 0.23030877, -0.15829559, -0.033840112, 0.012513226, -0.047703795, -0.17532814, 0.23198633, -0.17583, 0.015046755, 0.04318058, 0.12536377, -0.23290455, 0.17993252, -0.26652187, -0.110419594, -0.0010761941, 0.17783514, -0.25993785, 0.2851934, -0.11682017, -0.11436826, 0.1712089, 0.123904064, -0.2529411, 0.23570317, -0.1906149, -0.05300089, -0.03656611, 0.05586305, -0.23713107, 0.29224962, -0.14505866, -0.07886365, -0.009185175, -0.07962733, -0.3379155, 0.20843545, -0.108770154, -0.19572943, -0.17890966, -0.053909615, -0.2538811, 0.12623438, -0.23296307, -0.14561185, -0.059092138, -0.08321349, -0.20163108, 0.26973057, -0.15377714, -0.24250425, -0.13665982, 0.0013541221, -0.24152964, 0.32350966, -0.055460434, -0.2535945, -0.09753048, -0.038841076, -0.23833562, 0.27294108, -0.13585447, -0.19287616, -0.18428256, -0.0917669, -0.08828828, 0.17005207, -0.13140674, -0.14437672, -0.14920649, -0.0025565983, -0.11055682, 0.21441643, -0.23886847, -0.15325016, -0.01911088, -0.20534866, -0.030954171, 0.30108505, -0.13617797, -0.113560766, -0.050156094, -0.04654478, -0.17165954, 0.275684, -0.22271387, -0.06439856, -0.03521469, -0.022644807, -0.0254007, 0.25290707, -0.11123224, -0.08339336, 0.1362574, 0.015628861, -0.08618176, 0.17612281, -0.102769844, -0.13818637, 0.042007104, -0.098578975, -0.09261224, 0.31376708, 0.015998118, 0.08087431, 0.035231613, -0.20637906, -0.21245907, 0.25700167, -0.20099294, 0.08897928, 0.19241874, -0.17531201, -0.07419878, 0.33289844, -0.10595841, 0.08782702, 0.17025173, -0.10221202, -0.0027237597, 0.13356876, 0.037322827, 0.018736774, 0.15437785, -0.049388498, 0.08065271, 0.16030313, -0.16572095, 0.14835039, 0.1139728, -0.053711016, -0.065205276, 0.28217086, -0.06903387, 0.10465525, 0.17118225, -0.044289246, -0.053311, 0.2332004, -0.11898867, 0.13597193, 0.23499434, 0.0019920052, -0.006091355, 0.18530968, -0.06417843, 0.027943688, 0.10080633, 0.002193745, 0.10642075, 0.21152641, -0.13419017, 0.24556112, 0.10024033, 0.11255055, 0.13579643, 0.00025586862, 0.011120148, 0.1336467, -0.01103816, -0.01844295, -0.14192648, 0.02162565, -0.18536992, 0.10275326, -0.016507274, -0.1288564, -0.33963954, 0.1738938, -0.1025246, 0.1623557, -0.08459251, -0.22747372, -0.34302428},

				{ -0.10414137, -0.25323287, -0.14235349, 0.4524881, -0.058492463, -0.33373648, -0.04100675, -0.13985458, -0.04850027, 0.36229062, -0.19765358, -0.25138202, -0.0910229, -0.12344127, -0.04934796, 0.43182275, -0.21115339, -0.3610435, -0.17601943, -0.10332556, -0.1857107, 0.44095746, -0.20748502, -0.26146623, -0.21804555, -0.18378444, -0.17387384, 0.4950189, -0.0888197, -0.14289755, -0.14911018, -0.15373726, -0.10680257, 0.26232722, -0.14496303, -0.20600805, -0.19331445, -0.19055049, -0.100249805, 0.31673592, -0.27909362, -0.118160844, -0.16448973, -0.15090168, -0.12296886, 0.35146892, -0.3841542, -0.027780851, 0.03658127, -0.22735907, -0.09766862, 0.24486017, -0.34063601, -0.035908405, -0.14085014, -0.22506686, -0.05498862, 0.39573067, -0.3945963, -0.14011705, -0.123223096, -0.1996651, -0.12473516, 0.39927047, -0.33700398, -0.13461119, -0.044867877, -0.20969999, -0.123123, 0.297398, -0.5387465, -0.0590099, -0.12824266, -0.21906886, -0.035783064, 0.31183314, -0.44179112, -0.16350426, -0.0012355634, -0.14478645, -0.037809152, 0.3406946, -0.3031892, -0.09750703, -0.16737698, -0.12750332, -0.048709903, 0.2403938, -0.19175461, -0.022665655, -0.19313625, -0.12203183, -0.024495447, 0.32990998, -0.3217023, 0.060438044, -0.14046635, -0.05099997, -0.16604695, 0.4081929, -0.20912819, 0.13245507, -0.066321045, -0.20373191, -0.1622768, 0.3781652, -0.25102058, -0.0045046164, -0.04031375, -0.0756945, -0.10804345, 0.3381227, -0.17166664, -0.15270019, -0.08587246, -0.20304757, -0.16625458, 0.24852961, -0.069202654, -0.003728456, -0.11516206, -0.19211921, -0.15504694, 0.44933727, -0.11480024, -0.014703513, -0.16287227, -0.1453959, -0.089387946, 0.30480847, -0.20551741, -0.03288951, -0.10465672, -0.022272347, -0.1526228, 0.29086256, -0.23362185, 0.042811364, 0.033715893, 0.0074244547, -0.15696618, 0.37194088, -0.42772454, 0.006662879, -0.14045818, -0.19323969, -0.112706184, 0.4946459, -0.44652236, 0.030705659, -0.08705304, -0.06658823, -0.073060885, 0.4773624, -0.41235384, 0.045226265, -0.15859944, -0.1149679, -0.08088884, 0.3157195, -0.46854445, -0.08722117, -0.030232599, -0.14232244, -0.18085477, 0.48471087, -0.39491832, 0.05201052, -0.20994824, -0.12437743, -0.12991334, 0.24342848, -0.38125005, 0.10485524, -0.20244923, -0.1591718, -0.016451485, 0.404728, -0.40817392, 0.11857897, -0.03663979, -0.024415096, -0.14765859, 0.30133668, -0.3599135, 0.057929624, -0.09560549, -0.16031864, -0.20625089, 0.2166463, -0.33147606, 0.18684745, -0.25408763, -0.12045028, -0.09781658, 0.23103325, -0.3547789, 0.24366799, -0.10935195, -0.079326585, -0.1708474, 0.31446275, -0.3639902, 0.3057616, -0.11654476, -0.11798537, -0.022558933, 0.44182873, -0.45520142, 0.09455013, -0.16871943, -0.21748829, -0.12902926, 0.33509126, -0.4874173, 0.29481196, -0.18283546, -0.13771246, -0.15309276, 0.33170894, -0.28550988, 0.14007518, -0.065858774, -0.13879992, -0.19928733, 0.4184954, -0.29373553, 0.08881903, -0.1590855, -0.06841953, -0.15682372, 0.34046713, -0.3457182, 0.012710462, -0.054159068, -0.055600576, -0.093737, 0.23745006, -0.37817496, -0.056879636, -0.14783087, 0.017977834, -0.18165326, 0.24293381, -0.45494407, 0.041503042, -0.20340908, -0.089302346, -0.09388258, 0.46383238, -0.2523296, -0.13735145, -0.11134805, 0.0100432355, -0.085668705, 0.40743804, -0.21074946, -0.035757773, -0.1065061, -0.065068915, -0.14891031, 0.28760484, -0.32936108, -0.09377324, -0.19247064, -0.18802592, -0.1326348, 0.35018617, -0.17854972, -0.04129319, 0.035596456, -0.10474375, -0.15443869, 0.4885225, -0.18215847, -0.098330535, -0.108646914, -0.08559479, -0.011191851, 0.40414426, -0.13526411, -0.04199774, -0.07837108, -0.08245088, -0.013802678, 0.5351859, -0.19631563, -0.17375962, -0.054844618, -0.2058205, 0.08106231, 0.6496125, -0.11312367, -0.09840222, -0.08343893, -0.1952901, 0.030510731, 0.7076388, -0.04011608, -0.18359368},

				{ -0.15918073, 0.007180421, 0.025026638, 0.07865123, 0.041362856, 0.40003654, -0.016212983, -0.01482077, 0.06139944, 0.16072673, -0.12661016, 0.4097219, -0.12860662, 0.04111112, 0.0948454, 0.19399205, -0.35738507, 0.26054096, -0.20045118, 0.09187493, 0.016998759, 0.14789592, -0.22813204, 0.28193155, -0.08611722, -0.042774037, -0.016368581, 0.14289059, -0.27028352, 0.20102327, -0.078055695, 0.10487667, -0.028236894, 0.0002633541, -0.2871618, 0.23441721, 0.01829487, 0.10134417, -0.10608707, 0.06905637, -0.38811487, 0.14519854, -0.064400166, 0.07662037, -0.095913835, -0.021907963, -0.36862576, 0.21138844, -0.0048644887, -0.017496126, -0.015380262, -0.09803654, -0.28476152, 0.29144365, -0.09617806, 0.08740708, -0.20171098, 0.0019074949, -0.2787558, 0.18010151, -0.11514556, 0.084567934, -0.180184, -0.01387599, -0.24386518, 0.30701655, -0.004165601, 0.080620654, -0.22980356, 0.08132837, -0.2242992, 0.28526118, 0.011061971, -0.0085364515, -0.08702356, -0.007973996, -0.13091543, 0.2849765, -0.011356138, -0.018522222, -0.043517932, 0.05475473, -0.11414229, 0.108078495, -0.025667451, 0.1234431, -0.17508437, -0.11965013, -0.27925974, 0.22952154, -0.025889337, 0.124340266, -0.07024033, -0.116858505, -0.14597861, 0.1952946, -0.15042321, 0.04580374, -0.19912156, 0.064672805, -0.21969534, 0.18189383, -0.12656355, -0.03404088, -0.10927172, -0.06773911, -0.22859031, 0.23903413, 0.0009265186, 0.09305862, -0.084572665, -0.04874395, -0.13573582, 0.40566692, -0.100477725, 0.052660454, -0.07529549, -0.021101823, -0.019107372, 0.44847885, -0.18749322, -0.038270622, -0.038635567, -0.0674052, 0.029294342, 0.6304065, -0.08925663, 0.06261587, -0.21305874, -0.011080943, 0.04097191, 0.6526336, -0.102821924, -0.13642645, -0.0022509703, -0.11202269, -0.07925709, 0.7911391, 0.016098024, 0.015608376, -0.069458835, 0.05647618, 0.04722078, 0.7889839, -0.12268968, -0.009256031, 0.013149015, 0.041219257, -0.07084048, 0.76875377, 0.016464269, 0.024575386, -0.043201603, -0.033373866, 0.008850018, 0.7488557, 0.066910006, -0.07768051, -0.16440114, 0.024480477, -0.088884786, 0.5525545, 0.034578238, -0.023316711, -0.08494825, 0.082929075, 0.045986935, 0.6149804, 0.08275406, -0.009029328, -0.079793945, -0.010167556, 0.14836225, 0.49850288, -0.113913335, -0.055393822, -0.035170943, -0.02823153, 0.036853775, 0.5545973, -0.11068495, 0.0044539254, 0.07996408, -0.06662212, 0.04922941, 0.6609161, -0.079888165, -0.022234628, 0.07059231, -0.054072853, 0.13440047, 0.560951, -0.05943506, -0.022927957, 0.18583736, 0.08005363, 0.08608974, 0.5734523, 0.19066471, 0.022414032, 0.008232862, -0.08828155, -0.07163452, 0.66555065, 0.056895472, -0.022775218, -0.016931154, -0.06146039, 0.08612967, 0.580895, -0.009766757, -0.06049451, 0.051598497, -0.0007572662, -0.0033867287, 0.5788999, 0.03795784, -0.04565176, 0.06881198, 0.069814935, 0.033377826, 0.7353129, -0.06507748, -0.01373945, -0.027703794, -0.11312535, -0.12599486, 0.53681296, -0.075713076, -0.041105155, 0.0024827677, 0.049717054, -0.1660964, 0.5489271, -0.13227376, -0.061973948, -0.033187963, -0.022214543, -0.2008341, 0.62181824, -0.1479702, 0.06494528, 0.012052987, 0.10956235, -0.16143405, 0.4790269, 0.06583364, 0.06771132, 0.12664042, -0.024158219, -0.0037182083, 0.43470547, -0.014179234, 0.08503395, -0.12701344, -0.075345956, -0.00024095437, 0.40930304, -0.030017296, -0.044642314, -0.12163889, 0.036861684, -0.050344788, 0.39642796, -0.036185913, -0.041776724, -0.033258025, -0.025303807, 0.055556666, 0.15932421, 0.07297504, 0.055221196, -0.11863217, 0.14731215, 0.030700771, 0.2482118, -0.07858914, -0.018533548, -0.17246202, 0.115861826, 0.054245297, 0.046273354, 0.051727917, 0.15564731, -0.25468186, 0.16163531, -0.07446122, 0.06921353, -0.026823143, -0.102083266, -0.05495658, 0.25877014, -0.02412265, 0.36341178, 0.0022020794, -0.107605435, -0.22605637, 0.28755698, 0.035337467, 0.5494452},

				{ 0.14296992, 0.0037623555, -0.16148028, 0.34096804, -0.36083743, -0.25179636, 0.054333463, 0.20956762, 0.018386967, 0.11812876, -0.34325352, 0.0061747646, -0.07502616, 0.038182653, 0.045856796, -0.03162589, -0.11573108, 0.054190744, 0.0015459431, 0.14908975, -0.15878963, 0.003510311, -0.20389783, -0.029806528, -0.07462461, 0.11824561, -0.12563036, 0.07957143, -0.14607845, -0.08542558, 0.06144463, 0.11066331, -0.08441926, 0.1627268, -0.21376295, 0.08554299, -0.04951908, 0.04772995, -0.1518288, 0.13890144, -0.33127874, 0.09377191, 0.094849885, -0.038004067, -0.033290096, 0.16046599, -0.14438075, -0.008302594, 0.014723754, 0.13111588, -0.07306693, 0.037689127, -0.1881339, 0.035806477, 0.15944944, -0.019046169, -0.010944478, 0.19820319, -0.31782836, -0.10998607, 0.1979606, -0.021589268, -0.030480668, 0.31051448, -0.19142032, 0.043114953, 0.11076915, -0.05022405, 0.023839189, 0.2992187, -0.2969511, -0.10338089, 0.081750624, -0.005194281, 0.07290254, 0.34628892, -0.15628825, -0.05256831, 0.08251905, -0.06044633, 0.049607884, 0.3496509, -0.102735616, -0.04119453, 0.100926585, 0.12104761, 0.014628355, 0.26567504, -0.10558407, -0.046491574, 0.087439194, 0.037324503, 0.023699597, 0.3269211, 0.039225478, 0.024884162, 0.16228645, 0.0753428, -0.02703557, 0.34371936, 0.0031575656, 0.114274755, 0.11192262, 0.06426406, -4.1354753e-05, 0.3075444, 0.2040901, -0.022206219, 0.19293027, 0.020143744, -0.065998405, 0.09818707, 0.2673016, -0.058105852, 0.20100799, 0.008744094, -0.06348799, 0.24225038, 0.19502471, -0.042279027, 0.09541192, 0.06332253, -0.13006297, 0.16728148, 0.20541513, -0.041701935, 0.29919732, -0.020030256, -0.031219654, 0.09572954, 0.090474784, -0.20368522, 0.28106385, 0.038786698, -0.15978469, 0.0479085, 0.18884903, -0.2287427, 0.10144743, 0.16591579, -0.12235195, 0.068038076, 0.085973, -0.24162866, 0.23614648, 0.08288598, -0.01505125, 0.21696484, 0.1252116, -0.38083467, 0.086073495, 0.15533864, -0.035940025, -0.052852605, 0.077268094, -0.39864215, 0.13693197, 0.008384061, -0.07089377, 0.029985595, 0.073220894, -0.3334753, 0.17967553, -0.014858934, -0.05746758, 0.08132752, 0.03670466, -0.3179885, 0.17333953, -0.04836092, -0.15008925, -0.15826695, -0.017549785, -0.34012246, 0.23789039, -0.087168105, -0.105092056, -0.13634862, 0.15557794, -0.25447348, 0.31819984, 0.017696861, -0.14648744, -0.057942294, -0.04790919, -0.24815556, 0.27870944, -0.095504366, -0.32405385, 0.01998749, 0.036430053, -0.2974099, 0.09414069, 0.010128747, -0.022508498, 0.03739101, 0.07338257, -0.0002661412, 0.06247645, -0.08773667, -0.11441309, 0.05094464, -0.029603587, 0.054429363, 0.18877453, 0.056470033, -0.25285268, 0.13756958, -0.052882228, 0.041400436, 0.23012243, -0.045570377, -0.108516045, -0.046965316, -0.05797733, -0.06762966, 0.26285028, 0.077581465, -0.0032526343, 0.169545, -0.011661919, 0.059300918, 0.28219905, 0.06534676, -0.03349916, 0.06237486, -0.07083297, 0.021061111, 0.38883477, 0.028640246, 0.1520762, 0.21555486, -0.25830403, -0.1482579, 0.16187781, 0.07092261, 0.042223126, 0.04085735, -0.054035705, -0.13667274, 0.35090074, 0.01479695, 0.09224215, 0.058110304, -0.108454235, -0.09381824, 0.102359615, 0.033340476, 0.03521926, 0.06820749, -0.25330442, -0.0068918327, 0.09803269, -0.016566396, 0.09328321, 0.022845032, -0.080118276, -0.14718714, 0.19019437, -0.051700056, 0.032076593, 0.10744863, -0.09376131, -0.032524277, 0.11325838, 0.00011375311, 0.07094223, 0.0075579714, 0.071353555, -0.13704494, 0.23559518, 0.13320684, -0.0690984, 0.2251185, -0.08623992, -0.13482293, 0.11762837, 0.081015304, 0.12083177, 0.19297327, 0.14890821, -0.21355651, 0.045363534, 0.00059421273, -0.03366482, 0.07472389, 0.10542625, -0.26802266, 0.2037267, 0.0254413, 0.1912811, 0.16529928, 0.15905076, -0.3603354, 0.17462897, -0.08538596, 0.021059778, 0.2582812, 0.12895076, -0.5237498},

				{ -0.029014448, 0.034119718, -0.1037981, 0.33256197, -0.26257846, 0.7544237, -0.047206108, -0.0034507548, -0.06360567, 0.11954841, -0.20104374, 0.4106868, -0.017659705, -0.02901775, -0.073664114, 0.19220152, -0.28971735, 0.39555737, -0.13191988, 0.1304525, -0.08590785, 0.13580976, -0.18358776, 0.20650713, -0.04453526, 0.05576391, -0.11322225, 0.030253505, -0.26423222, 0.29688066, 0.019272123, -0.033294905, -0.2854806, 0.20988931, -0.24561788, 0.24540679, -0.040545035, 0.20290372, -0.2481202, 0.06492964, -0.08161254, 0.15782571, -0.12090792, 0.1506005, -0.21087207, 0.21630147, -0.087729104, 0.28412762, 0.020381223, 0.16557778, -0.2612123, 0.097974144, -0.03343318, 0.33228812, -0.035088845, 0.036714323, -0.22212423, 0.17470312, -0.10825161, 0.30073446, -0.1058138, 0.12512621, 0.009364594, 0.069946244, -0.18369506, 0.20437106, -0.026219139, 0.04147441, -0.21646634, 0.12590945, -0.05105025, 0.09532834, -0.029774565, 0.023782987, -0.2694537, 0.17548342, -0.094799235, 0.06367619, 0.03420645, 0.0946528, -0.09282019, 0.21066114, 0.027070723, 0.07941867, -0.06795862, 0.00493642, -0.1371969, 0.26021123, -0.07132153, 0.12369543, 0.04186004, -0.070991874, -0.15161358, 0.11602324, -0.114567734, 0.10673151, -0.05904779, 0.09691413, -0.23217091, 0.22979786, 0.024867035, 0.26258367, 0.031468783, 0.06815404, -0.26284277, 0.15736921, 0.10639716, 0.2478908, 0.020035315, 0.0516629, -0.25031534, 0.18605398, -0.017217988, 0.2930236, 0.014624503, 0.043423, -0.21591316, 0.12280391, -0.041248553, 0.40488547, -0.06456456, 0.1009759, -0.22395302, -0.00044478348, 0.058365606, 0.31746808, 0.07736302, 0.0417405, -0.12559193, -0.014718355, -0.07965769, 0.544975, 0.15934764, -0.066750765, -0.15113275, -0.08363128, 0.007620801, 0.49162912, 0.093935706, 0.012606251, -0.23341489, 0.002780459, 0.15917417, 0.45161608, 0.1982174, -0.1153274, -0.0921055, 0.0055557042, 0.10678994, 0.34588602, -0.05424377, 0.07685579, -0.30710477, 0.07556972, 0.1814275, 0.24866962, -0.12957701, 0.09405688, -0.05769873, 0.19501217, 0.15784886, 0.2596321, 0.051352657, 0.08632767, -0.10023711, 0.124514066, 0.073792234, 0.299092, -0.011311823, 0.052133415, -0.056600273, 0.21995394, 0.20769662, 0.07686927, 0.15573813, -0.11576357, -0.051803168, 0.17958374, 0.21188988, 0.17227507, -0.15141827, -0.046549086, -0.17620742, 0.16435243, 0.079872996, 0.1609831, 0.12842742, 0.014421275, -0.03335045, 0.07244329, 0.1308118, 0.17898686, -0.0015824555, 0.06687195, -0.04150471, -0.0045962697, 0.053384323, 0.12326855, -0.023652405, -0.043483548, -0.17452331, 0.00033023919, -0.101552606, 0.14043392, 0.03351845, 0.1140917, -0.0863497, 0.13689423, -0.023466453, 0.17801285, -0.06716654, 0.04846236, -0.14784293, -0.00920334, -0.22301234, 0.22659218, 0.09917259, 0.05283328, -0.13067062, 0.043382585, -0.1662185, 0.061869953, 0.03513876, -0.0041465345, -0.06644293, 0.12657811, -0.07761638, 0.16640155, 0.036460932, -0.14099577, 0.03911027, 0.021690203, -0.16069895, 0.19460508, -0.00068486563, -0.075951286, -0.030551828, 0.19245796, -0.08455923, 0.34164986, 0.12580404, 0.004191192, -0.12568602, 0.13135542, -0.00040491016, 0.25881362, 0.092643484, 0.16884407, -0.24067211, 0.174646, -0.14711687, 0.15284042, 0.2120419, -0.08916918, -0.014169516, 0.081792794, -0.059664067, 0.29883417, -0.03354474, 0.038075436, -0.21506256, 0.089598425, -0.08071175, 0.28597826, 0.013638134, 0.043793973, -0.02236652, 0.104180716, 0.04404037, 0.19507372, -0.15047278, 0.106825486, 0.02640378, 0.31439698, 0.050619483, 0.11767933, 0.19046396, 0.0707394, -0.10549543, 0.1423957, 0.011330859, 0.17687017, 0.07905799, -0.04396375, -0.1700806, 0.21956955, -0.16751827, 0.24139073, -0.0215595, 0.11476328, -0.09630228, 0.39596227, -0.051835403, 0.2667933, 0.06652301, 0.123020746, -0.13267745, 0.48290178, -0.057312198, 0.22704728},

				{ 0.0002009233, 0.011654439, -0.008979075, 0.10304762, -0.118136585, -0.09617322, -0.071839675, 0.04493803, -0.046565674, 0.024758292, 0.01814502, 0.043523803, 0.0058427732, 0.05397278, 0.006720809, -0.08789776, -0.10391438, -0.08922112, -0.0910749, -0.06450764, -0.011749913, -0.1001417, -0.105761595, -0.0025361013, -0.07880236, 0.108752854, -0.024114255, -0.035830036, -0.041670024, 0.002154898, -0.06926582, -0.098714955, -0.11511967, -0.02595793, 0.04690849, -0.11330976, 0.06929308, -0.04246025, -0.08048169, -0.08756602, 0.0036248688, 0.10664697, -0.08137703, -0.035545688, -0.06237661, -0.11090402, 0.101222694, 0.066598356, -0.096357636, -0.054306123, 0.06654861, 0.06369332, 0.05303516, 0.046600834, -0.08227981, -0.110470936, 0.00071189017, 0.03651574, 0.0769277, -0.098871216, -0.0036639736, 0.015250099, 0.01292985, -0.060981326, -0.035854436, 0.05875474, -0.10789043, -0.012222987, -0.110995844, -0.0979897, 0.054908957, 0.016772034, -0.020758452, -0.06743097, 0.020871002, 0.07893533, -0.074163646, 0.053081173, -0.0487017, 0.032259047, 0.058825396, 0.060826287, 0.017151939, -0.071540035, 0.0032053348, -0.016295278, -0.11375758, -0.09792991, 0.08948946, -0.094599895, -0.08225344, -0.04049902, -0.06798856, 0.058422673, -0.02672488, 0.011861617, 0.057386275, -0.045823373, -0.06501572, -0.06269935, 0.07242594, 0.08857688, -0.06969233, 0.08227036, -0.009577348, 0.053821046, 0.08222134, -0.018243847, 0.080353916, -0.08999209, 0.05697526, -0.08990778, 0.08501833, 0.062199254, -0.027455606, -0.12254768, -0.067727014, 0.09523364, -0.016769681, -0.052328095, -0.082991265, -0.090165615, 0.044366587, 0.031671233, -0.01769158, -0.04760819, 0.09573416, -0.05833176, -0.11612766, -0.010315215, -0.034614425, -0.007839101, -0.04419224, 0.02586056, 0.074926145, 0.07653117, 0.069760084, 0.093186915, -0.031014819, -0.10593274, 0.084645584, -0.09573122, -0.035281297, 0.054352853, -0.048576593, -0.10762006, 0.016362907, 0.091611974, 0.107605204, -0.05546355, 0.06977561, -0.017744243, 0.0070176, 0.09115372, 0.09963576, 0.005314729, 0.0857772, 0.09557376, -0.011440489, 0.052086864, -0.08742807, 0.029387493, -0.11554962, 0.0033242037, 0.074038915, -0.06032549, 0.037401542, 0.083704755, 0.08786764, -0.115117505, -0.037302986, -0.015684158, 0.032120265, 0.015722612, 0.11208092, 0.02615704, -0.11670835, -0.10899419, -0.03748643, -0.11515372, 0.080337524, 0.00043785316, 0.04222136, -0.11799392, -0.10787276, 0.029538726, -0.023373295, 0.0071678944, -0.005053879, 0.080684304, 0.026199583, -0.10379533, -0.05791917, -0.083536424, 0.102120884, -0.12094778, -0.08971681, -0.07433365, 0.085327886, -0.12170085, 0.06477701, -0.034542967, -0.033980638, 0.004961259, 0.08667133, -0.08960912, -0.06561919, -0.09154943, 0.06261717, 0.00925852, 0.051909517, -0.010770348, 0.049300514, 0.040946618, -0.07049745, -0.050407186, 0.051579174, -0.03981027, -0.12331218, -0.0017392809, -0.101126604, 0.048413336, -0.11834716, -0.04434854, -0.09122691, 0.019766305, -0.101397455, -0.042219006, 0.06716113, -0.08119423, -0.030102242, -0.0038585796, 0.02878969, -0.008949991, -0.07156798, -0.11960841, 0.003989936, -0.027851641, 0.02104914, 0.046945974, 0.023651829, -0.101953045, 0.051327296, 0.10947593, -0.11079446, -0.012702679, 0.07098836, -0.04992098, 0.0021255016, 0.013997266, 0.0390276, 0.111455746, -0.019269468, 0.062188283, 0.10438685, -0.043974202, 0.090230584, -0.04636991, 0.11107545, -0.11254431, -0.020134121, 0.11050579, -0.02595057, -0.04096569, 0.003313684, 0.103343785, -0.096358694, 0.00022449128, 0.10182884, 0.050647736, -0.001685663, 0.041967947, -0.020236187, -0.020700473, -0.11977567, -0.01943171, -0.024654392, -0.07107947, 0.00710437, 0.01930726, -0.057495397, -0.043347474, 0.03890017, -0.059479464, -0.103515066, -0.02950989, 0.016134188, -0.10054762, 0.061061256, -0.051782463, 0.09210678, -0.034214765, -0.12154269, -0.039259464, -0.0064485655, 0.060420956, -0.0019050043, 0.096852385, 0.088011354, 0.09919351},

				{ 0.036167935, 0.03363385, -0.03192106, -0.5883394, 0.17742877, -0.4659863, 0.0074500614, 0.18007106, -0.017945707, -0.44181615, 0.13889943, -0.25871703, -0.025348522, 0.18964198, 0.13678282, -0.24162696, 0.18417461, -0.06570717, -0.07221397, 0.24823678, 0.08905618, -0.32656968, 0.12134971, -0.027885752, 0.059382398, 0.30567077, 0.011121578, -0.17440961, 0.19517341, -0.14754768, 0.07546548, 0.16847466, 0.07913811, -0.0698288, 0.19094476, 0.011170275, -0.08377395, 0.23183331, -0.048355438, -0.124300145, 0.16092229, -0.08512326, 0.006580677, 0.10500914, 0.03257467, -0.15491234, 0.21174666, 0.017486682, 0.023184868, 0.1997322, 0.07083088, -0.12847023, 0.1273483, -0.2047894, 0.11125196, 0.2624769, 0.16997322, -0.11547773, 0.050002437, -0.078401364, -0.006419358, 0.15299806, 0.111893505, -0.057254933, 0.14802065, -0.2453751, 0.09035267, 0.20490886, 0.007605235, -0.008764586, 0.11677889, -0.17919001, 0.03985201, 0.22771397, 0.04568418, -0.0056133503, 0.134614, 0.049362265, 0.08209588, 0.08146941, 0.0027271037, -0.21930826, 0.1157342, 0.10334929, 0.11460628, 0.04360123, 0.24638742, -0.031131, -0.059990205, -0.050938178, 0.17783214, 0.19998646, 0.069506995, -0.090741016, 0.051297646, 0.10023539, -0.12543367, 0.1382781, 0.056836452, -0.20932265, -0.07956618, -0.014458933, 0.057854056, 0.06694489, 0.031628784, -0.27499628, 0.09544363, 0.0306505, -0.019062316, 0.031082656, 0.031897835, -0.27425694, 0.07923886, 0.19782728, -0.06495138, 0.08239798, 0.028541861, -0.13425128, 0.15329328, 0.028366046, -0.06170086, 0.09570541, 0.12333814, -0.2602647, 0.12696989, 0.022070646, 0.08443858, -0.0028822152, 0.15371825, -0.29566303, 0.17204757, 0.0612266, -0.0053944304, 0.14869039, 0.10512899, -0.2210234, 0.14119624, 0.14882028, -0.16764823, 0.06586934, 0.123160265, -0.15561286, 0.03377314, 0.16995624, -0.077860646, 0.013615621, 0.2877507, -0.14516696, 0.067372724, 0.12708594, 0.07911174, 0.09429347, 0.25644603, -0.2877129, -0.031420995, -0.06252638, -0.015838696, -0.0022608368, 0.029236425, -0.26630923, 0.18554826, -0.124454334, 0.09779521, -0.0036762217, 0.14052527, -0.34087205, 0.07425142, -0.020389527, 0.15806055, -0.018300345, 0.048196025, -0.19831745, 0.100749455, -0.1049383, -0.05375341, -0.036229342, 0.11359788, -0.2306748, -0.016934212, -0.13353081, 0.13811924, -0.07060524, 0.21346004, -0.26629427, 0.06568367, 0.03431819, 0.037182994, 0.10007228, 0.10832536, -0.19288677, 0.04087864, -0.01307644, -0.069414824, -0.013688351, 0.08654691, -0.13063797, 0.16855489, 0.05089336, -0.0018763661, 0.11255921, 0.18454263, -0.13813771, 0.20211102, -0.011616565, 0.025399558, 0.028932257, -0.010698484, -0.0347397, 0.28641534, 0.046932492, 0.12206894, 0.13204852, 0.15888965, -0.0042158724, 0.27141362, -0.11040725, 0.05212942, 0.016346047, 0.12965533, -0.037922505, 0.2588216, 0.0660088, -0.006183082, 0.07829514, 0.16666442, -0.13142094, 0.22084707, -0.055559874, 0.10715972, 0.27580607, 0.1965537, -0.08382558, 0.23740868, -0.10565767, 0.05691198, -0.014905575, 0.022634096, -0.13137415, 0.2606996, -0.120888196, 0.029080847, 0.14210075, 0.20350543, -0.08826714, 0.31332976, -0.08611317, 0.11044407, -0.012977975, 0.056108996, -0.15306067, 0.20597331, -0.13933748, -0.08793678, -0.017200364, 0.10008753, -0.20416282, 0.11924454, -0.27945077, 0.07818167, -0.015251125, 0.110698186, -0.22518034, 0.2430272, -0.22348543, 0.10789927, -0.035670776, 0.09053135, -0.21455021, 0.13847488, -0.1382383, 0.04428782, 0.048293307, 0.069490924, -0.088808715, 0.040326137, -0.28259286, 0.0009009258, 0.10403457, 0.13729975, -0.13882539, 0.13016939, -0.15813991, -0.13463762, -0.07504435, 0.015150573, -0.23847634, 0.22587529, -0.15606487, -0.1121803, 0.091627695, 0.050058775, -0.28558433, 0.29894987, -0.1193878, -0.018489562, 0.0009522621, 0.14572752, -0.28080538, 0.287183, -0.024547948},

				{ 0.008433399, -0.14245096, 0.010810743, -0.034544595, -0.096750885, -0.32849842, 0.15506816, -0.03201794, 0.05530861, 0.0144635765, 0.08336434, -0.23932484, 0.06504027, -0.09134897, -0.032045644, -0.081771284, 0.012274846, -0.2694173, 0.12370975, 0.02057525, 0.01625838, 0.0028572157, 0.1731964, -0.20921665, 0.028872991, -0.18252546, 0.010729312, -0.028453495, 0.09160822, -0.034273244, -0.1110006, -0.11898086, 0.04982306, -0.23995587, 0.027331568, -0.011786408, 0.06706972, -0.013632372, 0.19169088, -0.16654666, 0.19862743, -0.043589126, 0.13178131, 0.013325743, 0.061741114, -0.21534947, 0.23498182, 0.14562151, 0.05780775, -0.2756838, -0.06580466, -0.31654978, 0.025007103, 0.09170943, -0.038202554, 0.03443889, -0.08274526, -0.27730715, 0.24353376, 0.28835157, -0.08696087, -0.034662742, -0.06355082, -0.29502717, 0.064748704, 0.21680073, -0.08314277, -0.097327664, 0.06353454, -0.26324883, 0.115442686, 0.13405499, -0.014436706, 0.0047032135, 0.13559623, -0.21911618, 0.13288787, 0.07406777, -0.0047659157, 0.04442772, -0.01552562, -0.10374232, 0.15910219, 0.12222171, 0.0060585057, -0.020657104, -0.055150907, -0.09483391, 0.16788143, -0.03558136, 0.04311806, 0.04114658, 0.11641067, -0.1425317, 0.07737856, -0.031394552, 0.07881128, -0.09821311, -0.05470522, -0.035422612, 0.003085871, -0.21543254, 0.054964256, -0.07546355, 0.11282124, -0.092240766, 0.05993768, -0.16208854, 0.011768573, -0.06436558, -0.0867894, -0.13214956, -0.022909066, -0.27943048, -0.081905045, -0.09131055, 0.007440493, 0.029615656, 0.09028211, -0.16488571, -0.01403756, -0.096111655, 0.07113593, -0.042094193, 0.06944197, -0.21595447, -0.058155194, 0.026335223, -0.07716352, -0.123411834, 0.0035181362, -0.19394349, -0.10232197, -0.23265077, -0.025538092, -0.0014027274, 0.13875446, -0.24546099, 0.0024818645, -0.060407482, 0.06510097, 0.03841373, -0.009003341, -0.112632014, 0.05443545, -0.013252382, 0.06861515, -0.012347573, -0.01455634, -0.13017593, 0.13533911, -0.051336683, 0.05122031, -0.086966425, 0.013285915, -0.01866717, 0.09015842, -0.03347622, 0.04256781, 0.07930396, -0.025347766, -0.0003831176, -0.102223635, -0.059560712, 0.07053342, -0.02509593, -0.08866128, 0.08012411, -0.007608435, -0.008935062, 0.15164977, 0.054395165, -0.06812741, -0.09813872, -0.005211263, 0.12815823, 0.115827374, -0.026091894, -0.068771236, -0.031888727, -0.04851074, -0.022105223, -0.0032495882, -0.07644387, -0.10931431, -0.22231154, -0.047931626, 0.13588369, 0.022182647, 0.010218453, -0.01953433, -0.28590184, -0.12043065, 0.05026683, 0.108294554, 0.011575796, -0.029114988, -0.15302107, 0.009614872, -0.08464834, 0.10979463, 0.09953888, 0.028233673, -0.3234692, 0.0115462225, 0.013846212, 0.088653326, 0.12753034, 0.051086172, -0.35971668, 0.039992653, -0.11903824, 0.15107103, 0.14912984, -0.005161841, -0.23260148, -0.115086, -0.13630208, 0.040509015, 0.18606593, -0.09614298, -0.37296128, 0.03135128, -0.0580477, -0.09834294, 0.13311107, -0.06451203, -0.18353093, -0.2698743, -0.10351194, -0.16185415, 0.04272604, 0.017663632, -0.33192277, -0.14066443, -0.15621498, 0.049674656, -0.026768433, -0.0003899298, -0.20923685, -0.19873232, 0.047364645, 0.08664976, -0.035597082, 0.03166678, -0.16881427, -0.11821291, -0.17793888, 0.00970131, -0.055656426, 0.13233775, -0.24185422, -0.021337824, -0.12048886, 0.11328951, 0.018953469, -0.017869158, -0.16644137, 0.1090217, -0.04061739, 0.042839803, -0.109574676, -0.061800238, -0.022124184, -0.18506083, -0.07845847, -0.013028536, -0.118190035, -0.083303474, -0.050006554, -0.058039065, -0.20553847, -0.005462458, -0.0038175287, -0.09273559, -0.041417956, 0.057940166, -0.07419811, 0.014632273, -0.15219928, -0.11976804, 0.024865983, -0.096973866, -0.124961145, 0.05067965, -0.10172747, -0.11713571, -0.10843659, 0.01558771, -0.084939726, 0.024427434, -0.14237152, -0.18598914, -0.12535255, -0.06380112, -0.2627906, -0.07268504, -0.051286798, -0.20448264, -0.16769359},

				{ 0.05973996, 0.0052875713, 0.055413306, -0.019624025, 0.3920523, -0.0570681, 0.048835665, 0.029888995, -0.008133751, -0.04980867, 0.43926087, -0.10255831, -0.109104976, 0.009225606, 0.15195876, -0.3072548, 0.35426447, -0.066960305, -0.106041126, -0.05938148, 0.090852655, -0.38101828, 0.18905579, -0.085772656, -0.01286544, 0.022948876, 0.008371957, -0.42614257, 0.39902505, 0.10400839, -0.025541712, 0.05571815, -0.08919936, -0.3282195, 0.41086945, 0.19121476, 0.028980793, -0.0056414646, 0.09922772, -0.4108147, 0.26538384, 0.11426244, 0.11433345, -0.13442305, -0.043230336, -0.26698247, 0.26979914, 0.19733196, -0.05066501, -0.10445225, 0.048544284, -0.44526586, 0.3721204, 0.11369576, 0.11896658, -0.031334434, 0.053718694, -0.32455924, 0.43282878, 0.34655938, 0.13121775, -0.04367833, -0.040556047, -0.23083399, 0.4210678, 0.30879915, -0.04995098, -0.13161828, 0.030604737, -0.16103914, 0.36544666, 0.3736196, 0.032768775, -0.06795442, 0.11171751, -0.21362129, 0.32592335, 0.51025367, 0.095249616, -0.00026796374, 0.077392176, -0.11276312, 0.48237467, 0.31235975, 0.2378419, -0.104823895, -0.07102562, -0.19595447, 0.41989318, 0.3644592, 0.15264818, -0.023346184, -0.13236685, -0.058223493, 0.3120432, 0.23105438, 0.22196324, -0.03795312, 0.01543906, -0.106464826, 0.3314489, 0.3312246, 0.07406519, -0.029054401, 0.07322687, -0.08475451, 0.31247944, 0.16480455, 0.23383047, -0.03987939, -0.00800896, -0.16546202, 0.43561515, 0.11437849, 0.033020288, 0.124132805, 0.0038395121, -0.06719257, 0.33081207, 0.115957595, 0.083774105, 0.21331498, -0.110569976, -0.16333377, 0.27800268, 0.024634715, 0.068223566, 0.065610856, -0.042377073, -0.19002564, 0.29157275, 0.112729825, 0.051466875, -0.015991991, -0.16063677, -0.20987462, 0.31261012, -0.05124287, -0.0041822023, 0.006309897, -0.1167167, -0.23056716, 0.24283306, -0.011767626, 0.08725981, 0.13777904, -0.119877785, -0.22550315, 0.33757508, 0.015942087, 0.055110887, 0.08518128, -0.106046006, -0.19772482, 0.20989934, -0.23584728, 0.10508642, 0.057936944, -0.022228291, -0.29141715, 0.3806086, -0.09019938, 0.120416574, -0.057373423, -0.25947127, -0.29942024, 0.24085133, -0.06239124, 0.18961416, -0.048460886, -0.2109712, -0.2208399, 0.29031655, -0.16145794, 0.15076312, 0.0071595344, -0.037905004, -0.31582746, 0.22712515, -0.08248108, 0.017327104, 0.0561142, -0.09851638, -0.42686462, 0.36823067, 0.042617507, 0.108890526, -0.025188932, -0.18325901, -0.31670186, 0.32120612, -0.09990873, 0.09583631, -0.12585261, -0.15634122, -0.24568148, 0.28319362, 0.06528939, 0.0005125473, -0.2953037, -0.0019495719, -0.29590416, 0.36419317, 0.1273138, 0.10711325, -0.23489563, -0.12501578, -0.30943558, 0.3468199, 0.120603815, -0.016143154, -0.1262711, 0.053042505, -0.14304173, 0.34552342, 0.17572844, 0.05195139, -0.12307737, 0.09570694, -0.14051302, 0.37645602, 0.02394737, -0.015477495, -0.2538369, -0.009598875, -0.17105885, 0.30937418, 0.13657366, 0.06570435, -0.12350436, -0.0029170513, 0.070081346, 0.47784945, 0.18016946, -0.041274313, -0.23539189, 0.054192755, 0.08556641, 0.4447679, 0.012030274, -0.119876966, 0.13405114, 0.10730752, 0.06905418, 0.43914294, 0.13006534, 0.03793912, -0.065476954, 0.11298386, 0.018269863, 0.38766655, 0.045654662, 0.020282477, -0.087290674, 0.049979698, -0.05934844, 0.36568758, 0.015605989, 0.0024432654, -0.095623575, 0.06878444, -0.007886669, 0.4169703, -0.025377067, 0.051372144, -0.14084004, 0.2058402, 0.14497453, 0.49651664, -0.14970037, 0.030608397, -0.020121792, 0.22825, 0.068562105, 0.62164724, -0.13705161, 0.06697736, -0.0022050594, 0.03136306, 0.13259722, 0.6951386, -0.084938735, -0.032792017, -0.0073543256, 0.020100322, 0.2100758, 0.5195114, -0.2757241, -0.13957074, -0.073076405, 0.039234698, 0.3864626, 0.81557536, -0.18723913, 0.10398194, 0.053426165, -0.040532168, 0.41227984, 0.86271465, -0.23192726},

				{ 0.037769485, 0.19409189, 0.028432786, -0.4787915, 0.45777577, -0.25056535, -0.05051761, 0.16473746, 0.08185714, -0.17390747, 0.4190514, -0.09713459, -0.009060705, 0.13915831, 0.0063576414, -0.14635587, 0.4012675, -0.032504167, -0.13298242, 0.10583737, -0.03254055, -0.31803298, 0.49116665, -0.00048263322, -0.09368999, 0.08409722, -0.048645455, -0.20434433, 0.26774457, 0.00033411165, -0.03702705, 0.13708258, -0.06294907, -0.09914694, 0.44045556, -0.20713404, -0.13965738, 0.12183387, -0.06961171, -0.10978245, 0.30513754, -0.16796198, -0.11501374, 0.15776455, -0.028383175, -0.07439616, 0.31752154, -0.25719696, -0.071370095, 0.06494189, -0.007917938, -0.02247263, 0.43765774, -0.22919822, -0.0130160665, 0.19078724, -0.13968702, -0.11302112, 0.34919652, -0.33307236, 0.016820155, 0.017609248, 0.02658129, -0.0946683, 0.35123953, -0.2977486, 0.06232271, 0.040022414, 0.072528385, -0.028968828, 0.2513938, -0.24976476, 0.0970149, 0.064310946, -0.047945738, -0.05246071, 0.4004079, -0.056636926, 0.048810568, 0.15160275, 0.02112295, -0.13789473, 0.36545345, -0.17316662, 0.025548628, 0.05434288, 0.13148828, -0.13773637, 0.29367343, -0.19262497, 0.026273297, 0.021269813, -0.016261814, -0.16970366, 0.35015425, -0.027189191, 0.020356653, 0.08896209, -0.024236606, -0.07245859, 0.11821885, -0.20864038, 0.005696367, 0.25392294, 0.10779145, -0.078939684, 0.09394155, -0.09679501, -0.013085892, 0.09168187, -0.045484982, -0.10585568, 0.2701269, 0.054555498, 0.04698464, 0.094363496, 0.15305214, -0.2697628, 0.20012194, 0.10974947, 0.11315714, 0.1832377, 0.009036689, -0.15478034, 0.13893251, 0.039675105, -0.028691076, 0.23478556, 0.1969937, -0.17477696, 0.072710276, 0.118001364, 0.04157848, 0.16113585, 0.10817889, -0.188303, 0.18081158, 0.29463246, 0.075813696, -0.018906664, 0.050992, -0.17431976, 0.053755455, 0.1927095, 0.0024655252, 0.050999023, -0.0039623347, -0.24218333, 0.17526777, 0.28614077, 0.11008606, 0.20924729, 0.03399962, -0.1853002, 0.19910786, 0.27386296, 0.027061459, 0.09626056, 0.10274035, -0.27097687, 0.25012287, 0.10860784, 0.037912972, -0.010352974, -0.02562298, -0.14758955, 0.11699804, 0.20928547, 0.13181776, 0.03325805, 0.101526976, -0.27621964, 0.10516208, 0.17185183, -0.17267866, 0.0048381933, 0.11917657, -0.24852048, 0.21402806, 0.16245255, 0.20268422, 0.10912721, 0.047558855, -0.10819228, 0.13251449, 0.12171164, 0.011994818, 0.06514877, -0.043235533, -0.16191839, 0.124606214, -0.06361446, 0.04632978, 0.098490685, 0.08861035, -0.3129687, 0.32091704, -0.031102832, 0.10238454, 0.18913831, -0.027511487, -0.28030443, 0.23021777, -0.11295754, 0.02774983, 0.09035199, -0.03782089, -0.14521365, 0.21993862, -0.027510926, 0.104855314, 0.02702053, -0.083000705, -0.2412754, 0.20040789, -0.07986318, 0.038724393, 0.179655, -0.07655342, -0.09707612, 0.37638274, -0.014753033, -0.061551005, 0.056703497, -0.02961948, -0.12807354, 0.3720556, -0.1114061, -0.011724032, 0.14665706, 0.025921684, -0.089597784, 0.16120403, 0.08656968, 0.050791375, 0.082155734, -0.047642272, -0.10546473, 0.30348545, 0.015940512, 0.05315338, 0.062363315, -0.036795706, -0.16595976, 0.29322308, -0.12204077, 0.00049207185, 0.15336442, 0.01217374, -0.27776542, 0.10528813, -0.22041595, -0.20314114, 0.082758434, 0.0987168, -0.3064317, 0.15683341, -0.30357447, -0.07967661, 0.1958446, -0.14992994, -0.31028238, 0.14175484, -0.15640566, 0.025509479, 0.122678265, -0.031592987, -0.31677392, 0.12550054, -0.31068793, -0.14258958, 0.09955052, -0.1028202, -0.20985417, 0.23115218, -0.30548495, 0.015209289, 0.02596786, 0.01858602, -0.1768331, 0.29022467, -0.2599869, 0.029869774, 0.041019104, 0.09401877, -0.416587, 0.27001753, -0.3109944, -0.110278055, 0.17234024, -0.022762822, -0.28238767, 0.37053046, -0.19017488, -0.11549155, 0.06456074, -0.037773497, -0.3444816, 0.39547783, 0.01757972},

